
\data\
ngram 1=4648
ngram 2=61541

\1-grams:
-3.684264	0	-2.477252
-3.432525	1	-2.634701
-3.493991	2	-2.298548
-3.540404	3	-2.092776
-3.592378	4	-1.982674
-3.565614	5	-2.063751
-3.6209	6	-2.022718
-3.592378	7	-1.993729
-3.592378	8	-2.041053
-3.540404	9	-2.416966
-1.1867	</s>
-99	<s>	-2.246599
-3.432525	A	-0.9689326
-3.516578	B	-0.7663733
-3.651427	C	-0.8115914
-3.592378	D	-0.8790399
-3.684264	E	-0.5127845
-3.758479	F	-0.7771909
-3.800957	G	-0.449853
-3.684264	H	-0.4064178
-3.6209	I	-0.7379803
-3.900867	J	-0.2703222
-4.03085	K	-0.6375488
-3.651427	L	-0.5401447
-3.516578	M	-0.8829874
-3.758479	N	-0.4355867
-3.540404	O	-0.5410409
-3.758479	P	-0.5286688
-3.848045	R	-0.4357272
-3.565614	S	-0.6049399
-3.592378	T	-0.5808202
-3.961013	U	-0.4200378
-4.03085	V	-0.8262842
-4.21721	W	-0.2813839
-3.758479	X	-0.5752206
-4.21721	Y	-0.2703388
-4.21721	Z	-0.2971028
-3.651427	a	-0.3321967
-4.21721	b	-0.2776417
-4.11411	c	-0.2703387
-4.03085	d	-0.2595466
-3.592378	e	-0.5171585
-4.500966	f	-0.2353614
-4.352666	g	-0.2764524
-3.961013	h	-0.2889439
-3.758479	i	-0.3698747
-4.352666	k	-0.2658094
-3.961013	l	-0.3268482
-3.900867	m	-0.3741053
-3.900867	n	-0.4830602
-3.684264	o	-0.3203277
-4.21721	p	-0.2651359
-3.848045	r	-0.3231799
-3.848045	s	-0.3889961
-3.848045	t	-0.571333
-4.11411	u	-0.2554211
-4.352666	v	-0.3083037
-4.500966	w	-0.2764524
-3.961013	y	-0.4817617
-4.500966	z	-0.2353614
-4.574593	°	-0.2985542
-4.03085	×	-0.5873412
-3.961013	‰	-0.8311824
-4.352666	Ⅱ	-0.4062473
-4.574593	Ⅲ	-0.3083037
-4.574593	①	-0.4332424
-4.574593	②	-0.4332424
-4.574593	③	-0.4332424
-4.574593	④	-0.2985542
-4.574593	⑤	-0.2985542
-4.574593	⑥	-0.2985542
-4.574593	⑦	-0.2353614
-4.574593	⑵	-0.6093336
-3.800957	○	-0.3555654
-2.580368	一	-1.679056
-3.493991	丁	-0.9630172
-3.362131	七	-1.118734
-3.005746	万	-1.511251
-4.11411	丈	-0.8994849
-2.991675	三	-1.17395
-2.803594	上	-1.681349
-2.846006	下	-1.483555
-2.389955	不	-1.413808
-3.961013	与	-2.346272
-4.11411	丑	-0.6178032
-3.651427	专	-1.248731
-3.900867	且	-1.945636
-4.574593	丕	-0.2353614
-3.128943	世	-1.395064
-3.848045	丘	-0.6410703
-4.352666	丙	-0.2658094
-2.700206	业	-1.960931
-3.800957	丛	-1.078047
-2.836217	东	-1.289135
-3.472521	丝	-0.7421304
-4.574593	丞	-0.2353614
-4.574593	丢	-0.6950428
-3.395903	两	-1.674449
-3.592378	严	-1.397592
-4.21721	丧	-0.6975517
-3.452063	个	-2.411898
-4.574593	丫	-0.2353614
-2.666188	中	-1.74453
-3.248433	丰	-1.08414
-3.719788	串	-0.8445009
-3.592378	临	-1.089439
-4.352666	丸	-0.6762804
-3.516578	丹	-0.7366232
-2.826643	为	-1.998063
-2.861116	主	-1.675457
-3.119549	丽	-0.7841648
-3.346182	举	-1.56351
-4.21721	乃	-0.847424
-3.395903	久	-1.088424
-3.961013	么	-2.246815
-3.020289	义	-1.667535
-2.61385	之	-1.359498
-3.961013	乌	-0.7401395
-4.500966	乍	-0.2888878
-3.395903	乎	-1.463741
-4.03085	乏	-1.391585
-2.991675	乐	-1.077395
-4.500966	乒	-0.9705187
-4.352666	乓	-1.005296
-4.11411	乔	-1.069503
-4.500966	乖	-0.2851586
-3.961013	乘	-0.916881
-4.21721	乙	-0.5763486
-3.395903	九	-1.229399
-4.574593	乞	-0.2985542
-3.961013	也	-2.405033
-3.719788	习	-1.5509
-2.773251	乡	-1.606731
-2.909884	书	-1.396346
-3.684264	买	-1.276955
-3.301572	乱	-1.00938
-4.352666	乳	-0.4765552
-4.03085	乾	-0.5212529
-3.362131	了	-2.898685
-3.800957	予	-1.899015
-3.565614	争	-1.488123
-2.740987	事	-1.554235
-3.287666	二	-1.377056
-2.812667	于	-2.053838
-3.900867	亏	-1.100641
-2.945732	云	-0.9412881
-3.900867	互	-1.175868
-3.224119	五	-1.288785
-3.362131	井	-0.8497356
-4.500966	亘	-0.2888878
-3.092528	亚	-1.302803
-3.758479	些	-2.579621
-4.574593	亟	-0.5791864
-3.651427	亡	-1.228655
-4.500966	亢	-0.4505056
-3.110354	交	-1.381606
-4.574593	亥	-0.4332424
-4.352666	亦	-0.7278365
-2.991675	产	-1.801692
-4.03085	亨	-0.6619462
-4.500966	亩	-1.9049
-3.961013	享	-1.194713
-3.684264	京	-1.831854
-3.362131	亭	-1.008297
-3.148364	亮	-1.237921
-3.493991	亲	-1.236705
-4.574593	亵	-0.2985542
-2.287103	人	-1.812708
-3.330797	亿	-2.114607
-3.493991	什	-1.564564
-3.092528	仁	-0.7617514
-4.574593	仃	-0.2353614
-4.574593	仄	-0.2353614
-4.21721	仅	-2.011882
-4.11411	仆	-0.8007711
-4.11411	仇	-0.4941919
-3.6209	今	-1.857827
-3.758479	介	-1.48598
-4.500966	仍	-1.976275
-3.565614	从	-1.788756
-4.352666	仑	-0.5715451
-3.719788	仓	-0.7337347
-4.11411	仔	-0.9825394
-4.500966	仕	-0.2353614
-3.961013	他	-2.554903
-3.592378	仗	-1.051201
-3.6209	付	-1.277589
-3.684264	仙	-0.7678349
-4.574593	仞	-0.2353614
-4.574593	仡	-0.2353614
-3.092528	代	-1.682662
-3.315939	令	-1.383431
-3.043059	以	-1.834541
-4.574593	仨	-0.2353614
-3.362131	仪	-1.288453
-4.574593	仫	-0.2353614
-3.758479	们	-3.315101
-3.961013	仰	-0.7240923
-4.03085	仲	-0.4161856
-3.27419	件	-2.514843
-2.790329	价	-1.818787
-3.15841	任	-1.668311
-3.651427	份	-1.700844
-4.11411	仿	-0.9128011
-3.684264	企	-2.278032
-4.574593	伉	-0.2353614
-3.330797	伊	-1.43354
-4.03085	伍	-1.623903
-4.574593	伎	-0.2353614
-3.719788	伏	-0.6865022
-3.900867	伐	-1.277892
-3.719788	休	-1.005346
-3.432525	众	-1.738477
-3.493991	优	-1.492419
-3.848045	伙	-1.242535
-2.575031	会	-2.018859
-4.03085	伞	-0.8697804
-3.301572	伟	-1.256202
-3.330797	传	-1.18255
-4.574593	伢	-0.2353614
-3.362131	伤	-0.9793272
-3.248433	伦	-0.8455878
-4.03085	伪	-1.022822
-4.574593	伫	-0.2888878
-3.516578	伯	-0.7553518
-4.11411	估	-1.056044
-3.900867	伴	-1.208114
-4.352666	伸	-0.8737088
-4.574593	伺	-0.2764524
-3.516578	似	-1.193837
-4.500966	伽	-0.3430658
-4.03085	但	-2.426763
-3.092528	位	-2.138591
-3.565614	低	-1.185151
-3.248433	住	-1.669543
-3.800957	佐	-0.6075239
-4.03085	佑	-0.4626796
-2.799127	体	-1.713169
-3.651427	何	-1.408282
-4.574593	佘	-0.2353614
-3.395903	余	-1.44206
-3.6209	佛	-0.7757486
-2.939548	作	-1.8672
-4.574593	佟	-0.4649791
-4.500966	你	-1.892799
-4.500966	佣	-0.2764524
-4.574593	佤	-0.3083037
-3.684264	佩	-0.7259644
-4.352666	佬	-0.2764524
-4.574593	佯	-0.2985542
-4.574593	佰	-0.7854249
-3.684264	佳	-1.110171
-4.352666	佼	-0.2971028
-3.540404	使	-2.059585
-4.352666	侃	-0.2835146
-4.500966	侄	-0.2888878
-4.500966	侈	-0.6188779
-3.540404	例	-1.535272
-4.574593	侍	-0.2764523
-4.574593	侏	-0.6762804
-4.574593	侔	-0.2353614
-4.574593	侗	-0.5301524
-3.758479	供	-1.444803
-3.651427	依	-1.206095
-3.961013	侠	-0.4845688
-4.352666	侣	-0.7342724
-4.574593	侥	-0.5301524
-4.500966	侦	-1.000381
-3.800957	侧	-1.05946
-4.11411	侨	-1.027988
-4.574593	侩	-0.2353614
-4.574593	侬	-0.2353614
-4.500966	侮	-0.5596501
-4.352666	侯	-1.063861
-4.500966	侵	-0.7759414
-3.592378	便	-1.525048
-3.800957	促	-1.738987
-4.21721	俄	-1.743382
-3.452063	俊	-0.6200476
-4.21721	俏	-0.5981328
-4.574593	俐	-0.2353614
-4.21721	俑	-0.5139349
-3.516578	俗	-1.018755
-4.352666	俘	-0.4817617
-3.301572	保	-1.422739
-4.574593	俞	-1.474635
-2.933451	信	-1.347396
-4.574593	俨	-0.2764524
-4.11411	俩	-1.362661
-4.574593	俪	-0.2353614
-3.848045	俭	-0.7366167
-3.315939	修	-1.018562
-4.574593	俯	-0.3081288
-3.900867	俱	-0.9270889
-4.574593	俺	-0.7422432
-4.574593	俾	-0.2353614
-4.03085	倍	-1.427538
-4.574593	倏	-0.2353614
-3.472521	倒	-0.8909548
-4.574593	倔	-0.2353614
-4.574593	倘	-0.6068757
-3.684264	候	-1.555637
-4.574593	倚	-0.3114119
-3.848045	借	-0.9340453
-4.03085	倡	-1.328172
-4.21721	倦	-0.7854249
-4.574593	倨	-0.2353614
-4.500966	倩	-0.2353614
-4.500966	倪	-1.086455
-3.592378	债	-1.374949
-3.330797	值	-1.703945
-4.21721	倾	-0.8691031
-4.574593	偃	-0.5899178
-3.395903	假	-1.087715
-4.574593	偌	-0.6762804
-4.574593	偎	-0.5301524
-3.900867	偏	-0.7394478
-3.719788	做	-1.682135
-3.900867	停	-0.9694043
-3.516578	健	-1.429849
-4.03085	偶	-0.969925
-4.21721	偷	-0.582275
-3.848045	偿	-1.134563
-4.574593	傀	-0.2353614
-4.500966	傅	-1.523154
-4.574593	傈	-0.2353614
-4.352666	傍	-0.7247998
-4.574593	傣	-0.8909478
-4.11411	储	-1.024986
-4.500966	催	-0.5528102
-4.11411	傲	-0.7489017
-4.574593	傻	-0.2851585
-3.362131	像	-1.706523
-4.500966	僚	-0.7233937
-4.21721	僧	-0.6093337
-4.574593	僳	-0.2353614
-4.500966	僵	-0.6840686
-4.352666	僻	-0.872575
-4.574593	儋	-0.2353614
-3.900867	儒	-0.4623321
-4.574593	儡	-0.2353614
-2.748831	儿	-1.440109
-4.500966	兀	-0.2353614
-4.352666	允	-0.9169549
-3.083882	元	-1.775274
-4.03085	兄	-1.080381
-4.03085	充	-1.364832
-3.961013	兆	-0.5307403
-3.15841	先	-1.504808
-2.769085	光	-1.012132
-2.826643	克	-1.187001
-3.961013	免	-1.172451
-4.21721	兑	-1.158541
-4.11411	兔	-0.4997412
-4.574593	兖	-0.3083037
-3.092528	党	-1.703513
-4.574593	兜	-0.4047472
-4.352666	兢	-0.6328148
-2.876772	入	-1.567111
-3.248433	全	-1.621873
-3.179228	八	-1.136548
-3.020289	公	-1.497719
-3.395903	六	-1.15338
-3.900867	兮	-0.4990004
-3.035336	兰	-1.052072
-3.128943	共	-1.637513
-2.998653	关	-1.807961
-3.012957	兴	-1.144831
-3.083882	兵	-1.302687
-3.075404	其	-1.591391
-3.346182	具	-1.762524
-3.565614	典	-1.419439
-3.540404	兹	-1.185138
-3.248433	养	-1.205824
-3.961013	兼	-1.300692
-3.900867	兽	-0.7307584
-4.03085	冀	-0.8941461
-3.005746	内	-1.441438
-3.848045	冈	-0.7211894
-4.500966	冉	-0.7854249
-3.516578	册	-1.377892
-3.961013	再	-1.540704
-3.900867	冒	-0.87748
-4.574593	冕	-0.6762804
-4.574593	冗	-0.2888878
-3.493991	写	-1.48416
-2.785997	军	-1.459268
-3.315939	农	-1.577399
-3.758479	冠	-1.027802
-4.11411	冤	-0.3845751
-4.500966	冥	-0.2353614
-3.565614	冬	-1.052937
-4.574593	冮	-0.2353614
-4.500966	冯	-1.64107
-3.452063	冰	-0.7382189
-3.6209	冲	-1.014242
-3.516578	决	-1.901302
-3.684264	况	-2.188884
-4.11411	冶	-0.8437695
-3.493991	冷	-0.8884118
-3.758479	冻	-0.8965272
-4.574593	冼	-0.2985542
-4.21721	冽	-0.8329558
-3.848045	净	-0.8511505
-4.500966	凄	-0.2554211
-3.684264	准	-1.634522
-4.574593	凇	-0.2353614
-3.719788	凉	-0.6802447
-4.574593	凋	-0.2595467
-3.961013	凌	-0.8515952
-3.592378	减	-1.173819
-4.11411	凑	-0.8533899
-4.21721	凛	-0.5596501
-4.11411	凝	-0.8482437
-3.758479	几	-1.832838
-3.540404	凡	-1.076705
-3.651427	凤	-0.5216287
-4.21721	凭	-0.9452424
-3.651427	凯	-0.7504264
-4.574593	凰	-0.7154062
-4.352666	凳	-0.5319259
-4.03085	凶	-0.3803041
-4.574593	凸	-0.3926591
-4.500966	凹	-0.2353614
-2.856021	出	-1.681987
-3.248433	击	-1.29934
-3.900867	函	-0.9172767
-4.500966	凿	-0.6410704
-3.378689	刀	-0.7442844
-4.574593	刁	-0.2353614
-3.961013	刃	-0.5001891
-2.882118	分	-1.406246
-3.395903	切	-1.449479
-4.574593	刈	-0.2353614
-3.565614	刊	-1.294299
-3.848045	刑	-1.183261
-3.719788	划	-1.35627
-3.27419	列	-1.395304
-4.352666	刘	-1.927152
-3.413828	则	-1.88409
-3.315939	刚	-1.470105
-3.592378	创	-1.518395
-3.472521	初	-1.180367
-4.500966	删	-0.3400403
-3.800957	判	-1.322509
-4.574593	刨	-0.2851586
-2.693186	利	-1.433216
-3.201093	别	-1.622131
-4.574593	刮	-0.8592111
-3.027747	到	-2.141058
-2.696682	制	-1.769378
-3.900867	刷	-0.695365
-3.900867	券	-1.492872
-4.352666	刹	-0.4794589
-4.21721	刺	-0.9387897
-3.452063	刻	-1.296918
-4.574593	剁	-0.2985542
-3.301572	剂	-1.469875
-4.574593	剃	-0.2764523
-4.21721	削	-1.009759
-2.998653	前	-1.591258
-3.684264	剑	-0.5441715
-4.21721	剔	-0.5581811
-4.500966	剖	-0.5029067
-4.21721	剥	-0.7711042
-3.168694	剧	-1.515015
-4.03085	剩	-0.9602751
-4.11411	剪	-0.6623853
-3.800957	副	-1.707804
-3.900867	割	-1.040726
-4.574593	剽	-0.2353614
-4.352666	剿	-0.2985542
-4.500966	劈	-0.4817617
-2.61676	力	-1.730974
-4.352666	劝	-0.5328496
-2.971387	办	-1.80119
-3.168694	功	-1.278521
-2.96483	加	-1.593755
-3.119549	务	-1.616825
-3.719788	劣	-1.051109
-2.744891	动	-1.61496
-3.362131	助	-1.409465
-3.758479	努	-1.689274
-3.900867	劫	-0.6067005
-4.500966	劭	-0.2353614
-3.961013	励	-1.64553
-3.432525	劲	-0.9985816
-3.472521	劳	-1.261533
-4.574593	劼	-0.2353614
-3.101349	势	-1.772673
-3.848045	勃	-1.030236
-3.432525	勇	-0.9986051
-4.03085	勉	-0.8779059
-3.565614	勋	-1.118192
-4.574593	勍	-0.2353614
-3.346182	勒	-0.9284505
-4.352666	勘	-0.9392037
-4.500966	募	-0.7317966
-3.346182	勤	-1.091184
-4.352666	勺	-0.7062437
-4.500966	勾	-0.4053603
-4.500966	勿	-0.5301524
-4.574593	匀	-0.2353614
-3.287666	包	-1.246088
-4.21721	匆	-1.094424
-4.574593	匈	-0.8311825
-4.574593	匍	-0.2985542
-4.574593	匐	-0.2985542
-4.574593	匕	-0.2353614
-2.48439	化	-1.707981
-3.148364	北	-1.545777
-4.574593	匙	-0.8725751
-4.500966	匝	-0.2353614
-3.900867	匠	-0.5618891
-4.574593	匡	-0.3283616
-4.500966	匣	-0.2353614
-4.21721	匪	-0.4571258
-4.574593	匮	-0.5899178
-4.21721	匹	-0.6144327
-2.50647	区	-2.09716
-3.452063	医	-1.418626
-4.11411	匾	-0.5899178
-4.21721	匿	-0.4520048
-3.346182	十	-1.83073
-3.261121	千	-1.036287
-4.574593	卅	-0.2353614
-3.301572	升	-1.181652
-3.961013	午	-1.726163
-4.500966	卉	-0.9766117
-3.452063	半	-0.9770407
-2.682864	华	-1.448798
-3.378689	协	-1.80704
-4.574593	卑	-0.4681773
-4.500966	卒	-0.4332424
-3.848045	卓	-0.7181374
-3.315939	单	-1.333789
-3.540404	卖	-1.098547
-2.978045	南	-1.314077
-3.330797	博	-0.8055554
-3.848045	卜	-0.7020634
-4.574593	卞	-0.2353614
-3.719788	占	-1.334573
-2.904187	卡	-0.8516701
-3.961013	卢	-0.9755467
-4.574593	卤	-0.2353614
-4.500966	卦	-0.2985542
-4.21721	卧	-0.5045475
-3.378689	卫	-1.143328
-4.574593	卯	-0.2353614
-3.346182	印	-1.169166
-3.684264	危	-1.320206
-3.800957	即	-1.559248
-3.758479	却	-1.841824
-3.900867	卵	-0.5438755
-3.493991	卷	-1.113445
-4.11411	卸	-0.5947874
-3.516578	卿	-1.780572
-2.856021	厂	-1.560949
-4.11411	厄	-0.5714464
-3.083882	厅	-1.634155
-3.395903	历	-1.560542
-3.961013	厉	-1.06165
-3.452063	压	-1.070072
-4.21721	厌	-0.4236221
-4.352666	厕	-0.6824538
-4.500966	厘	-1.067039
-3.452063	厚	-0.9340736
-4.574593	厝	-0.2353614
-3.452063	原	-1.377404
-3.961013	厢	-0.5899178
-4.500966	厥	-0.2353614
-4.21721	厦	-1.349586
-4.352666	厨	-0.7690344
-4.574593	厩	-0.2985542
-4.574593	厮	-0.2985542
-3.236106	去	-2.048167
-2.497503	县	-1.757287
-3.848045	参	-1.494085
-4.21721	又	-2.697597
-4.21721	叉	-0.5752207
-3.362131	及	-1.946391
-3.212453	友	-1.394619
-3.651427	双	-1.071303
-3.516578	反	-1.285317
-2.700206	发	-1.725454
-4.352666	叔	-0.6593987
-3.148364	取	-1.648053
-3.472521	受	-1.516867
-3.212453	变	-1.467362
-4.03085	叙	-0.8040862
-4.574593	叛	-0.3835588
-4.11411	叠	-0.6580282
-2.831403	口	-1.352427
-3.287666	古	-0.9233407
-3.800957	句	-1.290005
-4.574593	另	-1.593732
-4.500966	叨	-0.2985542
-4.574593	叩	-0.2353614
-4.11411	只	-1.649617
-3.6209	叫	-1.171412
-4.03085	召	-1.561483
-4.352666	叭	-0.593116
-4.574593	叮	-0.4201594
-3.15841	可	-1.346956
-2.836217	台	-1.436728
-4.574593	叱	-0.3083037
-2.96483	史	-1.460855
-3.800957	右	-1.077336
-3.315939	叶	-1.210992
-3.043059	号	-1.440979
-3.362131	司	-2.032877
-3.719788	叹	-0.9202702
-4.500966	叽	-0.2353614
-4.352666	吁	-1.669865
-3.565614	吃	-1.138229
-3.651427	各	-1.635777
-4.574593	吆	-0.6093337
-2.921508	合	-1.581468
-3.190023	吉	-0.8562662
-4.21721	吊	-0.5053431
-3.138545	同	-1.65025
-2.887531	名	-1.329885
-2.991675	后	-1.692004
-4.500966	吏	-0.3083037
-3.758479	吐	-0.557827
-3.236106	向	-1.810597
-4.352666	吓	-0.5553275
-4.352666	吕	-1.125211
-4.500966	吗	-1.587057
-3.378689	君	-0.6500202
-4.500966	吝	-0.2353614
-4.21721	吞	-0.7004301
-3.961013	吟	-0.583634
-3.961013	否	-1.580919
-4.500966	吧	-1.361383
-4.352666	吨	-1.627305
-4.574593	吩	-0.4332424
-4.03085	含	-1.032512
-3.472521	听	-1.177502
-4.352666	吭	-0.2764523
-4.574593	吮	-0.2353614
-3.961013	启	-0.7618006
-4.352666	吱	-0.2974249
-4.03085	吴	-1.6406
-4.500966	吵	-0.6926151
-4.03085	吸	-1.216304
-3.961013	吹	-0.6670707
-4.352666	吻	-0.4062473
-4.352666	吼	-0.6600628
-3.848045	吾	-0.9541748
-4.352666	呀	-1.474635
-4.11411	呆	-0.7894901
-4.21721	呈	-1.334459
-3.413828	告	-1.318955
-4.500966	呐	-0.2658094
-4.574593	呕	-0.356823
-4.574593	呗	-0.2985542
-2.799127	员	-2.263323
-4.500966	呛	-0.4332424
-4.500966	呢	-1.806191
-3.432525	周	-1.458408
-4.574593	呱	-0.2353614
-3.261121	味	-1.254093
-4.21721	呵	-0.8164592
-4.574593	呷	-0.2353614
-4.574593	呸	-0.2353614
-4.574593	呻	-0.3083037
-3.472521	呼	-1.003946
-3.224119	命	-1.357543
-4.500966	咀	-0.3835588
-4.500966	咄	-0.3550948
-4.574593	咆	-0.4332424
-4.574593	咋	-0.7193509
-3.058931	和	-2.397518
-4.352666	咎	-0.4817617
-4.21721	咏	-0.4275119
-4.500966	咐	-0.6762804
-4.574593	咒	-0.2353614
-4.574593	咔	-0.2353614
-4.500966	咕	-0.2888878
-4.574593	咖	-1.587057
-4.574593	咙	-0.2353614
-4.352666	咚	-0.2764523
-4.574593	咛	-0.2985542
-4.574593	咝	-0.2985542
-4.574593	咤	-0.3083037
-4.500966	咧	-0.2353614
-4.574593	咨	-1.46274
-4.574593	咫	-0.2353614
-4.352666	咬	-0.593116
-4.500966	咯	-0.2353614
-4.574593	咱	-0.9113842
-4.500966	咳	-0.2353614
-4.352666	咸	-0.5348977
-4.352666	咽	-0.6440957
-4.574593	咿	-0.2353614
-4.21721	哀	-0.4161402
-2.915657	品	-1.732399
-4.500966	哄	-0.4893232
-4.500966	哆	-0.2985542
-4.352666	哇	-0.5553275
-3.301572	哈	-0.8417256
-4.21721	哉	-0.7342724
-3.540404	响	-1.654583
-4.574593	哎	-0.4332424
-4.574593	哐	-0.2353614
-4.500966	哑	-0.3231278
-4.500966	哓	-0.2353614
-4.500966	哗	-0.3043775
-4.500966	哟	-0.6093336
-3.472521	哥	-0.9154029
-4.574593	哦	-0.5301524
-3.961013	哨	-0.6079725
-4.574593	哩	-0.8311824
-4.574593	哪	-1.152617
-4.352666	哭	-0.6645514
-4.500966	哮	-0.3857978
-3.758479	哲	-1.094053
-4.574593	哺	-0.6410702
-4.574593	哼	-0.4505056
-4.574593	哽	-0.3083037
-4.574593	唁	-0.2353614
-4.574593	唆	-0.2353614
-4.03085	唇	-0.5115098
-4.574593	唏	-0.2353614
-3.900867	唐	-0.9208023
-4.574593	唠	-0.2353614
-4.574593	唢	-0.2353614
-3.961013	唤	-0.9111339
-4.500966	唧	-0.2353614
-4.574593	唬	-0.2353614
-3.758479	售	-1.297084
-4.21721	唯	-1.004093
-3.395903	唱	-1.183989
-4.574593	唷	-0.2353614
-4.574593	唾	-0.2776417
-4.574593	啃	-0.6410704
-3.101349	商	-1.342313
-4.500966	啊	-1.556059
-4.574593	啖	-0.2353614
-4.500966	啡	-0.8570335
-4.574593	啤	-1.50328
-4.500966	啥	-1.349696
-4.352666	啦	-1.149226
-4.500966	啧	-0.3550948
-4.352666	啪	-0.4332424
-4.574593	啬	-0.2353614
-4.574593	啭	-0.2353614
-4.574593	啷	-0.2353614
-4.03085	啸	-0.8363566
-4.574593	啻	-0.3083037
-4.500966	啼	-0.2658094
-4.500966	喀	-0.4266825
-4.574593	喂	-0.8629191
-4.352666	喃	-0.2595466
-3.287666	善	-1.307497
-4.574593	喆	-0.4332424
-4.500966	喇	-0.4875032
-4.352666	喉	-0.9172768
-3.961013	喊	-0.7797276
-4.500966	喋	-0.2985542
-4.21721	喘	-0.3701807
-3.261121	喜	-0.9824436
-4.11411	喝	-1.025161
-4.574593	喟	-0.2353614
-4.352666	喧	-0.5301524
-4.500966	喳	-0.2353614
-4.21721	喷	-0.494288
-4.21721	喻	-0.7080171
-4.574593	喽	-0.2353614
-4.574593	嗅	-0.2985542
-4.574593	嗑	-0.2353614
-4.574593	嗒	-0.2353614
-4.352666	嗓	-0.3418255
-4.500966	嗖	-0.2353614
-4.500966	嗜	-0.2658094
-4.574593	嗟	-0.2353614
-4.574593	嗣	-0.2353614
-4.574593	嗦	-0.2985542
-4.574593	嗨	-0.2985542
-4.574593	嗬	-0.2764523
-4.500966	嗲	-0.2353614
-4.500966	嗵	-0.2353614
-4.574593	嗽	-0.2353614
-4.574593	嘀	-0.3083036
-4.574593	嘈	-0.2985542
-3.684264	嘉	-0.5806922
-4.03085	嘎	-0.3550948
-4.500966	嘘	-0.5319259
-4.500966	嘛	-1.007274
-4.500966	嘤	-0.2353614
-4.574593	嘭	-0.2353614
-4.352666	嘱	-0.58451
-4.500966	嘲	-0.2764523
-3.6209	嘴	-0.7679251
-4.574593	嘹	-0.4332424
-4.500966	嘻	-0.2353614
-4.500966	嘿	-0.3043776
-4.574593	噌	-0.2985542
-4.574593	噎	-0.3083037
-4.574593	噙	-0.4332424
-4.574593	噜	-0.2353614
-4.574593	噢	-0.2353614
-2.96483	器	-1.495222
-4.574593	噩	-0.2353614
-4.500966	噪	-0.3590329
-4.574593	噬	-0.4332424
-4.574593	噶	-0.2985542
-4.500966	噼	-0.2971028
-4.574593	嚏	-0.2353614
-4.352666	嚓	-0.2764523
-4.500966	嚣	-0.5715451
-4.500966	嚷	-0.3043776
-4.500966	嚼	-0.5301524
-3.719788	囊	-0.6963573
-4.500966	囚	-0.633699
-3.148364	四	-1.196963
-3.315939	回	-1.271078
-3.472521	因	-1.756543
-2.846006	团	-1.621728
-4.352666	囤	-0.3083037
-3.138545	园	-1.344223
-3.592378	困	-1.740161
-4.574593	囱	-0.2353614
-3.758479	围	-1.421206
-4.574593	囹	-0.2353614
-3.651427	固	-1.310518
-2.679478	国	-1.956119
-3.035336	图	-1.462024
-4.574593	囿	-0.3043776
-4.352666	圃	-0.3083037
-4.574593	圄	-0.2353614
-3.684264	圆	-0.7739925
-3.472521	圈	-0.8697804
-3.15841	土	-1.069426
-3.961013	圣	-0.7087433
-3.179228	在	-2.35095
-4.352666	圩	-0.2764524
-4.500966	圪	-0.2920861
-4.11411	圭	-0.4697853
-2.556849	地	-1.805337
-4.574593	圳	-1.464842
-2.752807	场	-1.913759
-4.574593	圻	-0.3857978
-4.574593	圾	-0.9635859
-3.684264	址	-1.474635
-4.11411	坂	-0.2595466
-3.684264	均	-1.631345
-3.684264	坊	-0.6161653
-4.574593	坍	-0.5899178
-4.03085	坎	-0.5857329
-3.800957	坏	-1.132329
-3.961013	坐	-0.9440483
-3.758479	坑	-0.6916661
-3.493991	块	-1.40066
-3.684264	坚	-1.546218
-3.413828	坛	-1.437916
-3.565614	坝	-0.798403
-4.352666	坞	-0.593116
-4.21721	坟	-0.3590329
-4.352666	坠	-0.4250579
-3.472521	坡	-1.162401
-3.651427	坤	-0.9291261
-3.592378	坦	-1.077024
-4.574593	坨	-0.2353614
-3.540404	坪	-0.6600629
-4.500966	坯	-0.2985542
-4.574593	坳	-0.2985541
-4.352666	坷	-0.628096
-4.11411	垂	-0.4842916
-4.500966	垃	-1.454432
-4.21721	垄	-1.222124
-2.764958	型	-1.966368
-4.03085	垒	-1.173605
-4.352666	垛	-0.3083037
-4.500966	垠	-0.4332424
-4.352666	垢	-0.4332424
-4.03085	垣	-0.6845888
-4.11411	垦	-0.8895097
-4.574593	垧	-0.2353614
-4.03085	垫	-0.453733
-4.574593	垭	-0.3083037
-4.11411	垮	-0.9421003
-4.500966	埂	-0.2985542
-3.900867	埃	-0.7232602
-4.21721	埋	-0.7700784
-2.733281	城	-1.483873
-4.11411	埔	-0.832216
-4.500966	埙	-0.2985542
-3.540404	域	-2.010859
-3.961013	埠	-0.4933974
-4.574593	埤	-0.2353614
-3.565614	培	-1.53984
-3.138545	基	-1.667586
-4.574593	堀	-0.2353614
-3.083882	堂	-1.45339
-3.6209	堆	-0.891528
-4.574593	堇	-0.2353614
-4.500966	堑	-0.2985542
-4.574593	堕	-0.5319259
-3.452063	堡	-0.951707
-3.719788	堤	-0.8090073
-4.11411	堪	-0.7038611
-4.21721	堰	-0.7854249
-4.352666	堵	-0.8804005
-4.352666	塌	-0.9761217
-4.11411	塑	-1.122548
-3.138545	塔	-0.9679546
-3.592378	塘	-0.6757215
-4.574593	塚	-0.3835588
-3.395903	塞	-0.744535
-4.500966	填	-0.6629344
-4.574593	塬	-0.2353614
-3.301572	境	-1.705209
-4.574593	墅	-0.6468003
-4.574593	墉	-0.2764524
-4.574593	墒	-0.2353614
-4.21721	墓	-0.4949239
-3.413828	墙	-0.9995835
-3.346182	增	-1.597487
-4.500966	墟	-0.8311824
-3.684264	墨	-0.720548
-3.961013	墩	-0.5553275
-3.432525	壁	-0.741708
-4.352666	壑	-0.3857978
-4.574593	壕	-0.2353614
-4.21721	壤	-1.133986
-3.119549	士	-1.280895
-3.452063	壮	-0.8659103
-2.790329	声	-1.181849
-3.592378	壳	-0.800249
-4.11411	壶	-0.5329142
-2.831403	处	-1.654468
-3.378689	备	-1.364382
-3.378689	复	-1.102103
-3.516578	夏	-1.087391
-4.574593	夔	-0.2353614
-3.900867	夕	-1.260481
-3.020289	外	-1.402711
-4.574593	夙	-0.2353614
-2.971387	多	-1.749128
-3.301572	夜	-0.9833218
-4.21721	够	-1.990462
-2.596786	大	-1.386976
-2.707342	天	-1.299495
-3.651427	太	-1.250084
-2.909884	夫	-1.374816
-4.574593	夭	-0.2764523
-4.03085	央	-1.910524
-4.574593	夯	-0.5319258
-3.413828	失	-1.10012
-2.583062	头	-1.16307
-4.21721	夷	-0.3083037
-4.21721	夸	-0.5428475
-4.352666	夹	-0.6477057
-3.540404	夺	-0.9788922
-4.574593	奂	-0.2353614
-4.500966	奄	-0.2353614
-3.301572	奇	-0.7581792
-3.848045	奈	-0.664868
-3.900867	奉	-1.003127
-3.758479	奋	-1.341518
-3.651427	奎	-0.7394518
-3.800957	奏	-1.07384
-4.500966	契	-0.628096
-3.900867	奔	-0.8346462
-4.574593	奕	-0.2353614
-2.96483	奖	-1.327867
-3.516578	套	-1.19978
-4.574593	奚	-0.5301524
-4.352666	奠	-1.109936
-4.574593	奢	-0.7585052
-3.493991	奥	-1.052536
-3.236106	女	-1.407887
-4.500966	奴	-0.4463942
-3.848045	奶	-1.17254
-4.21721	奸	-0.3857978
-4.574593	她	-2.161968
-3.110354	好	-1.642841
-2.909884	如	-1.323662
-4.352666	妄	-0.2764524
-4.500966	妆	-0.4170248
-3.719788	妇	-1.484202
-3.900867	妈	-1.752869
-4.574593	妊	-0.2353614
-4.11411	妍	-1.521378
-4.574593	妒	-0.2353614
-3.592378	妙	-0.7729454
-4.574593	妞	-0.2353614
-4.352666	妥	-1.229122
-4.352666	妨	-0.8311824
-4.574593	妪	-0.2353614
-4.21721	妮	-0.2888878
-4.574593	妲	-0.2353614
-3.800957	妹	-1.181247
-4.03085	妻	-1.175269
-3.330797	姆	-0.9147092
-4.574593	姊	-0.7282205
-3.684264	始	-1.60625
-3.900867	姐	-1.150357
-3.800957	姑	-0.997436
-4.11411	姓	-1.454102
-2.95837	委	-2.310633
-4.500966	姗	-0.2985542
-4.500966	姚	-1.136886
-4.500966	姜	-1.529687
-4.574593	姣	-0.2353614
-4.500966	姥	-0.2851585
-4.352666	姨	-0.5899178
-4.500966	姬	-0.7342724
-4.574593	姹	-0.2985542
-4.21721	姻	-0.6845888
-3.758479	姿	-0.8622782
-3.27419	威	-0.9977433
-3.800957	娃	-0.8695345
-4.574593	娄	-0.2776417
-4.352666	娅	-0.7854249
-4.21721	娇	-0.7926884
-4.574593	娑	-0.2985542
-4.500966	娓	-0.2985542
-3.848045	娘	-1.224758
-3.516578	娜	-1.093368
-3.758479	娟	-1.096769
-4.574593	娠	-0.2353614
-4.352666	娣	-0.3083037
-4.352666	娥	-0.6200644
-4.574593	娩	-0.2985542
-4.21721	娱	-1.362661
-4.574593	娲	-0.2353614
-4.352666	娴	-0.4817617
-4.500966	娶	-0.8311824
-4.500966	娼	-0.2985542
-3.900867	婆	-0.7023176
-4.21721	婉	-0.3480048
-4.574593	婕	-0.2353614
-3.684264	婚	-0.8724012
-4.574593	婢	-0.2353614
-4.574593	婪	-0.2985542
-4.11411	婴	-0.8802164
-4.574593	婵	-0.2353614
-4.352666	婷	-0.4332424
-4.574593	婿	-0.4332424
-4.21721	媒	-1.547186
-4.352666	媚	-0.4817618
-4.21721	媛	-0.3926591
-4.574593	媲	-0.2985542
-4.03085	媳	-0.8523717
-4.574593	媾	-0.2353614
-4.03085	嫁	-0.7745461
-3.900867	嫂	-1.098354
-4.574593	嫉	-0.2353614
-4.500966	嫌	-1.30149
-4.574593	嫖	-0.2353614
-4.574593	嫡	-0.2353614
-4.500966	嫣	-0.2764523
-3.900867	嫩	-0.9769808
-4.574593	嬉	-0.5084975
-4.574593	嬗	-0.2353614
-4.574593	孀	-0.2985542
-2.363089	子	-1.5102
-4.574593	孑	-0.2353614
-3.684264	孔	-1.005357
-3.848045	孕	-0.6538883
-3.236106	字	-1.212235
-3.148364	存	-1.222995
-3.565614	孙	-1.337881
-4.352666	孚	-0.7926884
-3.800957	孜	-0.4945695
-3.900867	孝	-0.453883
-4.11411	孟	-0.9476797
-4.574593	孢	-0.2353614
-3.540404	季	-1.246218
-4.21721	孤	-0.739226
-2.676117	学	-1.566971
-4.03085	孩	-1.885197
-4.574593	孪	-0.2985542
-4.574593	孮	-0.2353614
-4.574593	孰	-0.3857978
-4.574593	孱	-0.2353614
-4.574593	孵	-0.2888878
-4.574593	孺	-0.2353614
-4.500966	孽	-0.2764524
-3.212453	宁	-1.137185
-4.352666	它	-2.393518
-4.11411	宅	-1.354281
-3.378689	宇	-1.080029
-3.362131	守	-0.8304816
-2.882118	安	-1.264769
-4.11411	宋	-1.315517
-4.21721	完	-1.698209
-3.493991	宏	-0.9600716
-4.574593	宕	-0.4332424
-3.592378	宗	-0.8869364
-3.101349	官	-1.286265
-4.21721	宙	-0.8616963
-2.96483	定	-1.673959
-4.21721	宛	-0.7072773
-3.565614	宜	-1.010889
-3.261121	宝	-0.6927907
-2.978045	实	-1.790827
-4.352666	宠	-0.3415066
-3.592378	审	-1.187173
-3.201093	客	-1.333392
-3.719788	宣	-1.436722
-3.050922	室	-1.745221
-4.500966	宦	-0.2985542
-4.11411	宪	-0.8901995
-3.395903	宫	-0.9386733
-4.11411	宰	-0.4509664
-3.248433	害	-1.388439
-3.848045	宴	-0.9085747
-4.11411	宵	-0.6068757
-2.567145	家	-1.618373
-4.500966	宸	-0.3083037
-3.212453	容	-1.262483
-3.651427	宽	-0.871033
-3.493991	宾	-1.17515
-3.848045	宿	-0.6642748
-3.961013	寂	-0.8454228
-4.11411	寄	-0.8595461
-4.21721	寅	-0.6038602
-3.330797	密	-1.222721
-4.500966	寇	-0.872575
-3.261121	富	-1.126369
-4.500966	寐	-0.3043776
-3.378689	寒	-0.8940295
-4.21721	寓	-0.5115099
-4.352666	寝	-0.4223637
-4.574593	寞	-0.8311824
-3.493991	察	-1.24217
-4.03085	寡	-0.5537176
-4.500966	寥	-0.3550948
-3.432525	寨	-0.9067082
-4.574593	寮	-0.4332424
-4.352666	寰	-0.3043776
-3.848045	寸	-0.6714475
-3.413828	对	-1.919698
-3.452063	寺	-1.282702
-3.900867	寻	-1.177815
-3.378689	导	-1.830926
-3.516578	寿	-0.7466988
-3.6209	封	-1.016654
-3.540404	射	-0.959675
-3.261121	将	-2.218377
-4.500966	尉	-1.459571
-3.848045	尊	-1.156453
-3.128943	小	-1.113902
-3.362131	少	-1.469336
-2.686278	尔	-1.00615
-4.500966	尕	-0.5596501
-3.848045	尖	-0.6452481
-3.651427	尘	-0.6488873
-3.758479	尚	-1.205241
-3.800957	尝	-1.050295
-4.11411	尤	-1.321798
-3.900867	尧	-0.6936892
-4.574593	尬	-0.872575
-3.516578	就	-2.025739
-4.574593	尴	-0.8725751
-4.500966	尸	-0.3857978
-4.574593	尹	-1.163949
-3.961013	尺	-0.8055828
-3.012957	尼	-1.182106
-3.346182	尽	-1.159249
-3.395903	尾	-0.6271393
-4.500966	尿	-0.5537349
-2.703759	局	-2.014666
-4.352666	屁	-0.3857978
-3.301572	层	-1.637244
-3.248433	居	-1.297936
-4.11411	屈	-0.6070057
-4.574593	屉	-0.2985542
-3.719788	届	-1.908065
-3.472521	屋	-1.035947
-4.574593	屎	-0.2353614
-3.651427	屏	-1.112797
-4.21721	屑	-0.6054076
-3.168694	展	-2.021259
-3.362131	属	-1.537081
-4.500966	屠	-0.6212488
-4.500966	屡	-0.6762804
-4.21721	履	-1.073546
-3.900867	屯	-0.346174
-2.529733	山	-1.075352
-4.500966	屹	-0.3857978
-4.352666	屿	-0.5319258
-3.6209	岁	-1.534481
-4.574593	岂	-0.7057773
-4.352666	岐	-0.2835146
-4.574593	岑	-0.2353614
-4.574593	岔	-0.2353614
-4.574593	岖	-0.3083037
-3.287666	岗	-1.611736
-4.11411	岚	-1.582339
-3.201093	岛	-1.159321
-3.516578	岩	-0.856852
-4.574593	岫	-0.2353614
-3.301572	岭	-1.036632
-4.352666	岱	-0.7247998
-3.758479	岳	-0.9601722
-4.574593	岷	-0.2764524
-3.472521	岸	-1.774486
-4.574593	岿	-0.2353614
-4.574593	峋	-0.2353614
-4.574593	峒	-0.2353614
-4.352666	峙	-0.9773104
-3.961013	峡	-1.277666
-4.574593	峤	-0.2353614
-4.574593	峥	-0.2353614
-4.574593	峦	-0.2353614
-4.500966	峨	-0.2353614
-4.574593	峪	-0.6868278
-4.03085	峭	-0.4798093
-3.148364	峰	-1.097602
-4.11411	峻	-1.205342
-4.574593	崂	-0.2985542
-4.574593	崃	-0.2353614
-4.352666	崇	-0.7908343
-4.500966	崎	-0.3043776
-4.574593	崔	-1.427191
-4.03085	崖	-0.3996032
-4.500966	崛	-1.084768
-4.352666	崩	-0.5319259
-4.574593	崭	-1.035302
-4.574593	崮	-0.6093336
-4.574593	崴	-0.2353614
-4.11411	崽	-0.6762804
-4.574593	嵇	-0.2353614
-4.574593	嵊	-0.5899178
-4.500966	嵌	-0.4798093
-4.574593	嵘	-0.2985542
-4.352666	嵩	-0.356823
-4.574593	嶙	-0.2353614
-4.500966	巅	-0.4505056
-4.21721	巍	-0.5212529
-3.224119	川	-1.170357
-2.841084	州	-1.662355
-4.500966	巡	-0.6775459
-4.11411	巢	-0.2971028
-2.756819	工	-1.92426
-3.900867	左	-0.9748431
-3.684264	巧	-0.697544
-4.11411	巨	-1.048578
-4.574593	巩	-1.512424
-4.574593	巫	-0.3926591
-3.395903	差	-1.172201
-3.684264	己	-1.93853
-3.651427	已	-2.271049
-3.083882	巴	-1.042386
-3.848045	巷	-1.017558
-4.11411	巾	-1.075254
-3.493991	币	-1.862982
-2.475863	市	-2.056159
-3.058931	布	-1.167948
-3.848045	帅	-1.50328
-4.03085	帆	-0.6541773
-3.110354	师	-1.347192
-3.516578	希	-1.270486
-4.11411	帐	-1.29358
-3.684264	帕	-0.5203094
-4.352666	帖	-0.3083037
-4.11411	帘	-1.086455
-4.574593	帙	-0.2353614
-4.574593	帚	-0.2985542
-4.500966	帜	-1.679372
-3.758479	帝	-0.9162225
-3.119549	带	-1.521108
-4.21721	帧	-0.5319259
-3.472521	席	-1.774934
-3.800957	帮	-1.477694
-4.500966	帷	-0.9276268
-3.395903	常	-1.456638
-4.500966	帼	-1.101801
-3.592378	帽	-0.9720452
-4.574593	幄	-0.2353614
-3.493991	幅	-1.692679
-4.500966	幌	-0.2851585
-4.574593	幔	-0.2353614
-3.493991	幕	-1.425583
-4.574593	幡	-0.2353614
-4.352666	幢	-0.808906
-3.236106	干	-1.505739
-2.744891	平	-1.42449
-2.707342	年	-1.945715
-3.592378	并	-1.773751
-3.900867	幸	-1.147621
-4.574593	幺	-0.2353614
-3.961013	幻	-0.6899868
-3.758479	幼	-0.7084472
-4.11411	幽	-0.5781079
-3.432525	广	-1.407359
-3.190023	庄	-1.136737
-3.224119	庆	-1.070126
-4.352666	庇	-0.4520048
-3.800957	床	-1.240425
-3.719788	序	-1.288987
-4.352666	庐	-0.4817617
-3.287666	库	-1.239211
-3.362131	应	-1.568882
-3.224119	底	-1.320071
-3.128943	店	-1.389005
-3.758479	庙	-0.8426686
-4.11411	庚	-0.5045475
-3.516578	府	-2.222962
-4.500966	庞	-0.9248027
-3.651427	废	-0.6309259
-4.500966	庥	-0.3083037
-2.882118	度	-2.131973
-3.472521	座	-1.429258
-3.472521	庭	-1.52214
-4.11411	庵	-0.6093336
-4.574593	庶	-0.4332424
-3.261121	康	-1.242912
-3.961013	庸	-0.5245278
-3.684264	廉	-1.32368
-3.758479	廊	-1.293581
-4.500966	廓	-0.2658094
-4.500966	廖	-1.229122
-3.961013	延	-0.9028821
-4.03085	廷	-0.6962965
-3.043059	建	-1.603131
-4.500966	廿	-0.3229674
-2.952005	开	-1.497928
-3.395903	异	-0.8167311
-3.684264	弃	-1.215907
-4.11411	弄	-0.8408868
-4.500966	弈	-0.2764523
-3.961013	弊	-1.019266
-4.500966	弋	-0.2985542
-2.794706	式	-2.141542
-4.574593	弓	-0.2353614
-3.758479	引	-1.340394
-4.21721	弗	-0.3162868
-4.21721	弘	-1.150975
-4.500966	弛	-0.3083037
-3.719788	弟	-1.27273
-3.413828	张	-1.759423
-4.21721	弥	-0.7784886
-3.719788	弦	-0.7401312
-4.574593	弧	-0.2776417
-4.500966	弩	-0.2353614
-4.574593	弭	-0.2353614
-4.03085	弯	-0.6019483
-3.493991	弱	-1.083691
-3.6209	弹	-0.9809315
-3.050922	强	-1.592293
-4.574593	弼	-0.2353614
-3.651427	归	-0.9608127
-3.148364	当	-1.588737
-3.378689	录	-1.311055
-4.574593	彝	-0.865467
-3.15841	形	-1.683079
-4.21721	彤	-0.464979
-3.961013	彦	-0.5971134
-3.452063	彩	-1.01775
-3.651427	彪	-0.9403996
-3.6209	彬	-1.118192
-4.21721	彭	-1.355276
-4.352666	彰	-1.17819
-3.212453	影	-1.451122
-4.574593	彷	-0.2353614
-3.758479	役	-1.75026
-3.900867	彻	-1.718359
-4.03085	彼	-0.762073
-3.413828	往	-1.540915
-3.592378	征	-0.9251655
-3.651427	径	-1.359452
-3.362131	待	-1.270607
-4.500966	徇	-0.5899178
-4.574593	很	-2.224922
-4.574593	徉	-0.3083037
-4.574593	徊	-1.19291
-3.6209	律	-1.78025
-4.352666	徐	-1.605154
-3.6209	徒	-0.9847915
-4.574593	徕	-0.3083037
-2.998653	得	-1.703758
-4.574593	徘	-1.19291
-4.500966	徙	-0.3083037
-4.574593	徜	-0.3083037
-4.11411	御	-0.8516977
-4.574593	徨	-0.2353614
-3.848045	循	-1.166017
-3.472521	微	-0.7069885
-2.710954	德	-0.9256165
-3.900867	徽	-1.468583
-2.6286	心	-1.2722
-3.684264	必	-1.511718
-4.21721	忆	-1.173607
-4.03085	忌	-0.8705875
-4.03085	忍	-0.6738424
-4.574593	忏	-0.6093336
-4.574593	忐	-0.2353614
-4.574593	忑	-0.2353614
-4.574593	忒	-0.2985542
-4.574593	忖	-0.2353614
-3.179228	志	-1.312376
-3.719788	忘	-1.019486
-3.758479	忙	-1.150368
-3.212453	忠	-0.7397116
-4.500966	忡	-0.2353614
-4.574593	忤	-0.2353614
-3.719788	忧	-0.8783394
-4.574593	忪	-0.2353614
-3.378689	快	-1.465721
-4.21721	忱	-0.7342724
-3.516578	念	-1.348341
-4.574593	忻	-0.2353614
-3.848045	忽	-0.7839182
-3.540404	怀	-0.8613024
-3.395903	态	-1.5714
-4.574593	怂	-0.3083037
-4.574593	怅	-0.4332424
-4.574593	怆	-0.2353614
-4.352666	怎	-1.741451
-4.500966	怏	-0.2353614
-3.848045	怒	-0.4113435
-4.574593	怔	-0.2353614
-3.800957	怕	-1.67729
-4.574593	怖	-1.479542
-4.352666	怜	-0.6410704
-3.190023	思	-1.33749
-4.500966	怠	-0.4843949
-4.500966	怡	-0.3454908
-3.540404	急	-0.9891031
-2.319737	性	-1.933155
-3.848045	怨	-0.5880505
-3.900867	怪	-0.9558188
-4.574593	怯	-0.2764524
-4.574593	怵	-0.2353614
-3.540404	总	-1.488704
-4.574593	怿	-0.2353614
-4.500966	恃	-0.2353614
-3.848045	恋	-0.5963115
-4.574593	恍	-0.2851586
-3.961013	恐	-1.115467
-3.800957	恒	-0.7515924
-4.11411	恕	-0.766009
-4.574593	恙	-0.4332424
-4.21721	恢	-1.637362
-4.574593	恣	-0.2764524
-4.21721	恤	-0.293694
-4.03085	恨	-0.5713329
-3.330797	恩	-1.094295
-4.352666	恪	-0.5791864
-4.500966	恬	-0.2658094
-3.848045	恭	-0.4232579
-3.201093	息	-1.420509
-4.21721	恰	-0.5891694
-4.21721	恳	-0.3580115
-3.651427	恶	-0.863025
-4.21721	恺	-0.7854249
-4.574593	恻	-0.2353614
-4.21721	恼	-0.4817617
-4.574593	恿	-0.3083037
-4.352666	悄	-1.016436
-4.11411	悉	-1.538752
-4.574593	悌	-0.2985542
-4.21721	悍	-0.356823
-3.848045	悔	-0.9698955
-4.352666	悖	-0.5899178
-4.574593	悚	-0.2353614
-3.719788	悟	-1.007574
-4.03085	悠	-0.7673597
-3.800957	患	-1.122525
-3.848045	悦	-0.9764619
-4.574593	您	-1.371094
-4.500966	悬	-0.5548153
-3.961013	悲	-0.5220878
-4.500966	悸	-0.3857979
-4.500966	悻	-0.2353614
-4.352666	悼	-0.2658094
-2.821934	情	-1.418801
-4.574593	惆	-0.4332424
-3.719788	惊	-0.6851474
-4.574593	惋	-0.4332424
-3.848045	惑	-1.095457
-4.574593	惕	-1.048556
-3.961013	惜	-1.238211
-4.500966	惟	-0.2627983
-3.413828	惠	-0.9006789
-4.574593	惦	-0.3857978
-4.21721	惧	-0.6868278
-4.21721	惨	-0.455326
-4.352666	惩	-0.7301873
-4.574593	惫	-0.5301524
-4.574593	惬	-0.2985542
-4.574593	惭	-0.2985542
-4.21721	惯	-1.073075
-4.500966	惰	-0.2353614
-3.301572	想	-1.680681
-4.500966	惴	-0.2658094
-4.11411	惶	-0.3321966
-4.500966	惹	-0.7854249
-4.574593	惺	-0.2353614
-3.758479	愁	-0.8994399
-3.848045	愈	-0.7337999
-4.352666	愉	-0.8909478
-4.574593	愎	-0.2353614
-2.861116	意	-1.540696
-4.500966	愕	-0.2985542
-4.21721	愚	-0.4256298
-3.035336	感	-1.453633
-4.574593	愣	-0.3857978
-4.11411	愤	-0.4532866
-4.03085	愧	-0.747599
-4.574593	愫	-0.4332424
-3.493991	愿	-1.673027
-3.961013	慈	-0.4111543
-4.352666	慌	-0.7742241
-4.03085	慎	-1.045096
-4.500966	慑	-0.6093336
-3.961013	慕	-0.7793768
-3.848045	慢	-1.205354
-3.6209	慧	-0.8277959
-4.352666	慨	-0.6852795
-3.758479	慰	-1.718088
-4.574593	慷	-0.9773105
-4.574593	憋	-0.5319258
-4.574593	憎	-0.2353614
-4.574593	憧	-0.4332424
-4.574593	憨	-0.292086
-4.500966	憩	-0.3083037
-4.500966	憬	-0.3857978
-4.574593	憷	-0.2353614
-4.352666	憾	-1.288888
-3.961013	懂	-1.097803
-4.352666	懈	-1.28348
-4.574593	懊	-0.2353614
-4.500966	懋	-0.2595467
-4.21721	懒	-0.4786975
-4.574593	懦	-0.2353614
-4.574593	懿	-0.2353614
-3.800957	戈	-0.6172341
-4.574593	戊	-0.8311824
-4.500966	戌	-0.2764524
-4.574593	戍	-0.5596501
-4.03085	戎	-0.4180415
-3.301572	戏	-1.325422
-2.725711	成	-1.69211
-3.540404	我	-2.221819
-3.961013	戒	-0.7903532
-4.11411	或	-1.997361
-2.817276	战	-1.481701
-4.21721	戚	-1.067806
-4.574593	戛	-0.2353614
-4.500966	戟	-0.2353614
-4.574593	戡	-0.2353614
-4.21721	截	-0.9288039
-4.574593	戮	-0.2353614
-4.500966	戳	-0.2985542
-3.900867	戴	-1.201996
-2.904187	户	-1.683808
-2.978045	房	-1.430919
-2.933451	所	-1.641052
-4.574593	扁	-0.2658094
-4.21721	扇	-0.668243
-4.574593	扈	-0.2985542
-4.352666	扉	-0.5899178
-2.790329	手	-1.263734
-3.168694	才	-1.569579
-3.516578	扎	-0.9585855
-4.21721	扑	-0.4995208
-4.500966	扒	-0.3954538
-3.261121	打	-0.9950207
-4.574593	扔	-0.4843949
-3.261121	托	-0.9852996
-4.500966	扛	-0.6868278
-3.719788	扣	-0.8946376
-3.848045	执	-1.295852
-4.500966	扩	-1.515976
-4.03085	扫	-0.8270059
-3.315939	扬	-1.086697
-4.574593	扭	-0.8404307
-4.352666	扮	-0.9452423
-4.03085	扯	-0.657853
-3.961013	扰	-1.120356
-4.574593	扳	-0.2703029
-3.758479	扶	-1.433711
-3.684264	批	-1.636825
-4.500966	扼	-0.2353614
-4.21721	找	-1.655053
-3.684264	承	-1.088287
-3.472521	技	-1.77309
-4.11411	抄	-0.7342724
-4.574593	抉	-0.4332424
-3.758479	把	-2.063665
-4.21721	抑	-0.9086766
-4.500966	抒	-0.4968221
-3.848045	抓	-1.562593
-3.684264	投	-1.54013
-4.11411	抖	-0.3699852
-3.758479	抗	-1.005011
-3.651427	折	-0.8426746
-4.21721	抚	-0.5083287
-4.574593	抛	-0.651548
-4.574593	抠	-0.2353614
-4.21721	抢	-0.909826
-3.493991	护	-1.229988
-2.933451	报	-1.746305
-4.574593	抨	-0.5301524
-4.500966	披	-0.7615685
-4.352666	抬	-0.9906291
-4.03085	抱	-0.9764168
-4.03085	抵	-1.050367
-4.500966	抹	-0.5485495
-4.03085	押	-1.051616
-4.574593	抽	-0.8308204
-4.574593	抿	-0.2353614
-4.352666	拂	-0.5175979
-4.574593	拄	-0.2353614
-3.961013	担	-1.487503
-4.500966	拆	-0.6758029
-4.500966	拇	-0.6093336
-4.574593	拈	-0.5301524
-2.861116	拉	-1.035996
-4.352666	拌	-0.3952416
-3.684264	拍	-1.17775
-4.574593	拎	-0.5301524
-4.574593	拐	-0.3400403
-4.21721	拒	-1.190074
-4.500966	拓	-1.382152
-3.800957	拔	-0.8539872
-4.03085	拖	-0.8036993
-4.574593	拗	-0.2985542
-4.352666	拘	-0.5365901
-4.21721	拙	-0.3952417
-3.848045	招	-1.010263
-3.758479	拜	-1.098416
-4.11411	拟	-0.9421003
-4.21721	拢	-0.7062436
-4.11411	拣	-0.4817617
-4.03085	拥	-1.391912
-4.500966	拦	-0.4186961
-4.574593	拧	-0.3083037
-3.900867	拨	-0.7634934
-4.11411	择	-1.383409
-4.352666	括	-2.105011
-4.574593	拭	-0.2353614
-4.574593	拮	-0.5301524
-4.574593	拯	-0.4798093
-4.500966	拱	-0.379558
-3.758479	拳	-0.4753728
-4.574593	拴	-0.6762804
-4.574593	拷	-0.2658094
-4.500966	拼	-0.8270706
-4.574593	拽	-0.6093336
-4.21721	拾	-0.6036032
-3.961013	拿	-1.5157
-3.6209	持	-1.983948
-3.719788	挂	-0.8968147
-3.472521	指	-1.556317
-4.500966	按	-1.47435
-4.574593	挎	-0.2764524
-4.21721	挑	-1.14737
-4.352666	挖	-0.9722853
-4.21721	挚	-0.9291261
-4.574593	挝	-0.6410704
-4.574593	挞	-0.4332424
-4.500966	挟	-0.2985542
-4.21721	挠	-0.9655814
-3.961013	挡	-0.7203906
-4.574593	挣	-0.7742241
-4.21721	挤	-0.9298658
-4.03085	挥	-1.361022
-4.352666	挨	-0.4938556
-4.574593	挪	-1.099057
-4.21721	挫	-0.8311824
-3.848045	振	-0.7393534
-4.11411	挺	-0.646026
-4.500966	挽	-0.7197722
-4.574593	捂	-0.2764523
-4.500966	捅	-0.6410703
-4.352666	捆	-0.6145079
-4.352666	捉	-0.6880566
-4.500966	捋	-0.2888878
-4.574593	捍	-0.9421003
-4.574593	捎	-0.5596501
-4.574593	捏	-0.5981328
-4.21721	捐	-1.454271
-3.848045	捕	-1.049824
-4.352666	捞	-0.613483
-3.961013	损	-1.423512
-4.574593	捡	-0.2920861
-3.413828	换	-1.160979
-4.500966	捣	-0.2658094
-4.352666	捧	-1.097186
-4.574593	捭	-0.3083036
-3.651427	据	-2.148141
-4.574593	捶	-0.2353614
-3.651427	捷	-0.9554116
-4.574593	捺	-0.3083037
-4.574593	捻	-0.2353614
-4.574593	掀	-0.8007711
-4.574593	掂	-0.4332424
-4.11411	授	-1.255271
-3.540404	掉	-1.230156
-3.800957	掌	-1.335188
-4.574593	掏	-0.7451785
-4.574593	掐	-0.3083037
-3.452063	排	-1.106224
-4.500966	掖	-0.4520048
-4.03085	掘	-1.185138
-4.500966	掠	-0.6145079
-3.900867	探	-1.142204
-4.574593	掣	-0.2985542
-3.493991	接	-1.375847
-3.565614	控	-1.587246
-4.11411	推	-1.455496
-4.352666	掩	-0.4907645
-3.900867	措	-1.954864
-4.500966	掬	-0.2888878
-4.500966	掰	-0.2888878
-4.574593	掳	-0.2353614
-4.352666	掷	-0.3550948
-4.574593	掸	-0.2985542
-4.574593	掺	-0.2971028
-4.574593	揆	-0.2353614
-4.574593	揉	-0.2353614
-4.574593	揍	-0.2353614
-4.352666	描	-0.952984
-3.346182	提	-1.684138
-4.21721	插	-0.6556392
-4.11411	握	-1.373164
-4.574593	揣	-0.531186
-4.574593	揪	-0.2658094
-4.500966	揭	-0.8979796
-4.574593	揳	-0.2353614
-3.719788	援	-1.289743
-3.848045	揽	-1.109936
-4.574593	搀	-0.3857978
-4.500966	搁	-0.3954538
-4.574593	搂	-0.2888878
-4.574593	搅	-0.3752504
-4.352666	搏	-0.9736231
-4.574593	搓	-0.4332424
-4.574593	搜	-0.7249049
-4.574593	搞	-1.743382
-4.574593	搪	-0.2353614
-4.352666	搬	-0.9075556
-4.11411	搭	-0.7964916
-4.352666	携	-0.9295242
-4.11411	摄	-1.691495
-4.03085	摆	-1.050881
-3.900867	摇	-0.7713097
-3.719788	摊	-0.8445284
-4.574593	摒	-0.7854249
-4.500966	摔	-0.680644
-4.352666	摘	-0.7316976
-4.574593	摞	-0.7342724
-4.500966	摧	-0.4465609
-3.900867	摩	-0.9047488
-3.758479	摸	-0.7985934
-4.352666	摹	-0.2888878
-4.574593	撂	-0.2764523
-4.574593	撅	-0.2353614
-4.574593	撇	-0.2353614
-4.500966	撑	-1.110074
-4.11411	撒	-0.7195687
-4.574593	撕	-0.2818732
-4.21721	撞	-0.9155379
-4.574593	撤	-0.9488653
-4.574593	撩	-0.2888878
-4.574593	撬	-0.5301524
-3.516578	播	-1.292138
-4.574593	撮	-0.2764524
-4.500966	撰	-0.7448319
-4.574593	撵	-0.2985542
-4.500966	撷	-0.2764523
-4.500966	撼	-0.8855401
-4.574593	擀	-0.4843949
-4.500966	擂	-0.7644835
-4.574593	擅	-0.7342724
-3.719788	操	-1.060653
-4.500966	擎	-0.5899177
-4.500966	擒	-0.2353614
-4.574593	擘	-0.2353614
-4.574593	擞	-0.2353614
-4.11411	擦	-0.6688656
-4.352666	攀	-0.6488398
-4.352666	攒	-0.6054075
-4.500966	攘	-0.3043776
-4.574593	攥	-0.4332424
-4.574593	攫	-0.2353614
-3.378689	支	-1.497174
-3.138545	收	-1.402091
-4.21721	攸	-0.4332424
-3.452063	改	-1.710836
-3.848045	攻	-1.098135
-3.168694	放	-1.355526
-3.043059	政	-1.797721
-3.6209	故	-1.324458
-3.346182	效	-1.789647
-3.848045	敌	-0.8952029
-3.248433	敏	-0.8517656
-3.395903	救	-1.34679
-4.352666	敖	-0.2623189
-3.050922	教	-1.486208
-4.21721	敛	-0.4649791
-4.500966	敞	-0.7891397
-4.11411	敢	-1.3793
-3.472521	散	-0.9194731
-3.900867	敦	-0.9961948
-3.565614	敬	-0.8201058
-3.012957	数	-1.572211
-4.500966	敲	-0.7951943
-3.6209	整	-1.481074
-4.574593	敷	-0.356823
-2.6286	文	-1.303746
-3.961013	斋	-0.6983729
-3.27419	斌	-1.446394
-4.500966	斐	-0.516699
-3.900867	斑	-0.5721894
-4.574593	斓	-0.9451257
-3.261121	斗	-1.390785
-3.110354	料	-1.356616
-4.500966	斜	-0.9678379
-4.574593	斟	-0.2353614
-4.500966	斡	-0.5084975
-3.900867	斤	-1.440679
-4.03085	斥	-0.4997412
-4.352666	斧	-0.8311824
-4.500966	斩	-0.2764523
-3.346182	断	-1.385119
-2.700206	斯	-1.219919
-2.927438	新	-1.571989
-2.752807	方	-1.784562
-3.684264	施	-1.740761
-3.900867	旁	-0.8434576
-3.961013	旅	-1.485811
-3.758479	旋	-0.886233
-4.574593	旎	-0.2353614
-2.945732	族	-1.897782
-4.574593	旖	-0.2353614
-3.413828	旗	-1.267262
-2.808107	无	-0.887317
-4.500966	既	-1.761877
-2.764958	日	-1.778852
-3.651427	旦	-1.71389
-3.540404	旧	-1.081922
-4.03085	旨	-1.383445
-3.6209	早	-1.168878
-3.900867	旬	-1.45768
-3.848045	旭	-0.6881956
-4.574593	旮	-0.2353614
-4.574593	旯	-0.2353614
-3.961013	旱	-0.830878
-2.812667	时	-1.765566
-4.352666	旷	-0.3232494
-3.684264	旺	-0.7625262
-3.900867	昂	-0.5918339
-3.651427	昆	-1.138475
-4.574593	昉	-0.2353614
-4.574593	昊	-0.7944275
-3.110354	昌	-0.8548866
-2.656482	明	-1.333714
-4.21721	昏	-0.6494481
-3.432525	易	-1.270151
-4.11411	昔	-0.9985817
-4.11411	昕	-0.5899178
-4.574593	昙	-0.2985542
-4.574593	昝	-0.3083037
-3.067089	星	-1.030272
-3.6209	映	-1.314648
-3.092528	春	-1.240976
-4.11411	昧	-0.766009
-4.574593	昨	-1.336332
-4.03085	昭	-0.4245207
-3.201093	是	-2.867045
-4.500966	昱	-0.2764524
-4.574593	昵	-0.2353614
-4.574593	昶	-0.2985542
-4.500966	昼	-0.9103637
-3.758479	显	-1.405624
-3.900867	晃	-0.7494643
-3.900867	晋	-0.6569885
-4.500966	晌	-0.3083037
-4.352666	晏	-0.3926591
-4.03085	晒	-0.7085728
-3.758479	晓	-0.5882213
-4.574593	晔	-0.3043776
-4.21721	晕	-0.2776417
-4.03085	晖	-1.035302
-4.574593	晗	-0.2353614
-3.592378	晚	-1.399953
-4.574593	晞	-0.2353614
-4.352666	晤	-1.310633
-4.574593	晦	-0.2353614
-3.961013	晨	-1.059373
-3.378689	普	-1.041056
-3.248433	景	-1.086793
-4.500966	晰	-0.934247
-3.961013	晴	-0.6776839
-3.758479	晶	-0.8958398
-3.362131	智	-0.8942153
-4.574593	晾	-0.2764523
-4.500966	暂	-0.9945619
-4.21721	暇	-0.8523717
-4.574593	暌	-0.2985542
-4.03085	暑	-0.7049102
-3.651427	暖	-1.080649
-3.900867	暗	-0.6091769
-4.574593	暧	-0.2353614
-4.574593	暨	-0.872575
-4.21721	暮	-0.3095517
-3.684264	暴	-0.9216278
-4.574593	暾	-0.2353614
-4.574593	曙	-0.4223636
-4.574593	曜	-0.2353614
-4.574593	曝	-0.8909478
-4.352666	曦	-0.8909478
-4.500966	曰	-1.007274
-3.148364	曲	-1.109102
-4.352666	曳	-0.3952417
-4.03085	更	-1.82489
-4.500966	曹	-1.476299
-3.472521	曼	-0.8889848
-3.848045	曾	-1.831926
-4.03085	替	-1.179073
-4.500966	最	-1.984541
-2.984806	月	-1.870829
-2.693186	有	-1.841003
-3.800957	朋	-1.466394
-3.261121	服	-1.738214
-4.21721	朔	-0.5079774
-3.432525	朗	-0.9533947
-3.110354	望	-1.642049
-3.452063	朝	-0.8269195
-2.831403	期	-1.780193
-4.574593	朦	-0.2353614
-3.092528	木	-0.6948041
-3.684264	未	-1.345761
-3.565614	末	-1.25322
-2.96483	本	-1.541112
-4.574593	札	-0.2888878
-3.472521	术	-1.708983
-4.21721	朱	-1.587483
-3.800957	朴	-1.044731
-3.900867	朵	-1.07422
-2.608087	机	-1.578788
-4.21721	朽	-1.061631
-3.472521	杀	-0.8600188
-3.719788	杂	-1.061583
-2.826643	权	-1.465988
-3.719788	杆	-1.01528
-4.500966	杈	-0.3083037
-3.961013	杉	-0.7967729
-3.900867	李	-1.974615
-4.352666	杏	-0.3124255
-3.261121	材	-1.565402
-2.672782	村	-1.577435
-4.21721	杖	-0.7342724
-3.961013	杜	-0.7972807
-4.500966	杞	-0.2353614
-3.848045	束	-1.565539
-4.21721	杠	-0.5845101
-3.301572	条	-1.667726
-2.856021	来	-1.898671
-4.11411	杨	-1.53669
-4.500966	杭	-1.267462
-3.168694	杯	-1.375063
-3.15841	杰	-1.147185
-4.574593	杲	-0.2353614
-4.574593	杳	-0.2353614
-4.574593	杵	-0.2353614
-4.574593	杼	-0.3083037
-3.212453	松	-0.8416592
-3.075404	板	-0.893521
-3.565614	极	-1.561142
-3.758479	构	-1.848247
-4.21721	枉	-0.2888878
-3.800957	析	-1.664024
-4.500966	枕	-0.2658094
-2.686278	林	-1.173077
-4.21721	枚	-1.365193
-3.261121	果	-1.609421
-3.540404	枝	-0.6459293
-4.352666	枢	-0.5618891
-4.21721	枣	-0.5324816
-3.452063	枪	-0.7099709
-4.352666	枫	-0.6278782
-4.21721	枯	-0.417367
-3.27419	架	-1.16298
-4.574593	枷	-0.3083037
-4.574593	枸	-0.2985542
-4.500966	柄	-0.3857978
-3.900867	柏	-0.6857658
-3.651427	某	-1.283474
-4.500966	柑	-0.6440958
-3.684264	染	-1.156096
-3.961013	柔	-0.4200899
-4.500966	柘	-0.2764524
-4.574593	柚	-0.2764524
-3.684264	柜	-0.8162253
-3.330797	查	-1.289276
-4.500966	柬	-0.8311824
-4.21721	柯	-0.4965801
-3.395903	柱	-1.191272
-4.21721	柳	-0.756356
-3.848045	柴	-0.583409
-4.500966	柿	-0.6200644
-4.500966	栀	-0.5488837
-4.352666	栅	-1.070033
-3.330797	标	-1.487952
-4.500966	栈	-0.3857978
-4.500966	栉	-0.2353614
-3.719788	栋	-1.218244
-3.540404	栏	-1.50183
-3.179228	树	-0.9488392
-4.11411	栓	-0.5335444
-4.352666	栖	-0.3817279
-4.500966	栗	-0.8629191
-3.236106	校	-1.436063
-4.500966	栩	-0.6093336
-4.03085	株	-0.7277125
-3.261121	样	-1.717466
-3.719788	核	-1.231943
-3.190023	根	-1.467535
-2.991675	格	-1.390017
-4.11411	栽	-0.8461282
-4.500966	栾	-0.5715511
-4.11411	桂	-0.5915979
-3.684264	桃	-0.5459411
-4.574593	桅	-0.3857978
-3.961013	框	-1.085763
-2.984806	案	-1.621642
-3.6209	桌	-0.8582408
-4.574593	桎	-0.3083037
-4.11411	桐	-0.5431572
-3.684264	桑	-0.6212799
-4.500966	桓	-1.163949
-4.21721	桔	-0.7333586
-4.574593	桕	-0.2353614
-4.574593	桠	-0.2985542
-4.21721	桢	-0.8311824
-3.848045	档	-1.254362
-3.101349	桥	-1.192464
-4.352666	桦	-0.4505056
-4.574593	桧	-0.2353614
-4.352666	桨	-0.6762804
-3.848045	桩	-0.9403995
-4.574593	桫	-0.4332424
-3.900867	桶	-1.602034
-3.565614	梁	-1.390164
-3.301572	梅	-0.7275862
-4.574593	梆	-0.2985542
-4.574593	梏	-0.3083037
-4.21721	梓	-0.3926591
-4.352666	梗	-0.2851585
-4.11411	梢	-0.8311824
-3.472521	梦	-0.7170494
-4.574593	梧	-0.2764523
-4.352666	梨	-0.3569982
-4.11411	梭	-0.6654017
-3.758479	梯	-0.7218133
-4.03085	械	-1.041407
-4.500966	梳	-0.3043776
-4.574593	梵	-0.2851586
-3.684264	检	-1.464619
-3.395903	棉	-0.8130726
-3.848045	棋	-0.890959
-4.21721	棍	-0.4384167
-4.03085	棒	-0.7226006
-4.352666	棕	-0.2353614
-4.21721	棘	-0.5981328
-3.540404	棚	-1.016583
-3.6209	棠	-0.9172767
-4.352666	棣	-0.7282205
-3.212453	森	-1.130359
-4.21721	棱	-0.2353614
-4.352666	棵	-1.032449
-4.352666	棺	-0.2764524
-3.758479	椅	-0.9960728
-3.719788	植	-1.085265
-4.500966	椎	-0.6145079
-4.11411	椒	-1.035302
-4.574593	椤	-0.2888878
-4.574593	椭	-0.2985542
-4.500966	椰	-0.2813839
-4.574593	椽	-0.2353614
-4.21721	椿	-0.293694
-4.574593	楔	-0.2353614
-3.800957	楚	-1.285599
-4.352666	楞	-0.2764524
-4.574593	楠	-0.4384166
-4.21721	楣	-0.464979
-4.21721	楷	-0.7307584
-4.574593	楹	-0.9655814
-3.110354	楼	-1.110942
-4.03085	概	-0.9608667
-4.574593	榄	-0.832216
-4.11411	榆	-0.3699852
-4.500966	榕	-0.2764523
-4.574593	榘	-0.2353614
-4.574593	榛	-0.2985542
-3.651427	榜	-1.060569
-4.574593	榨	-0.4332424
-4.574593	榫	-0.2353614
-4.500966	榭	-0.4505056
-4.500966	榴	-0.2353614
-4.500966	榻	-0.5301524
-4.574593	槁	-0.2353614
-4.500966	槌	-0.2985542
-4.500966	槐	-0.2764524
-4.574593	槛	-0.6762804
-4.500966	槟	-0.4332424
-3.848045	槽	-1.086455
-4.500966	樊	-1.064789
-4.574593	樟	-0.2353614
-3.592378	模	-1.528139
-4.574593	樨	-0.2353614
-3.719788	横	-0.5000809
-4.574593	樱	-0.6037357
-4.352666	樵	-0.3083037
-4.500966	橄	-1.211394
-4.574593	橘	-0.2353614
-4.574593	橙	-0.2985542
-4.574593	橡	-0.5899178
-4.352666	橱	-0.5715451
-4.500966	檀	-0.5713329
-4.21721	檐	-0.5899178
-4.500966	欠	-0.8009325
-3.15841	次	-1.94293
-3.758479	欢	-1.237977
-3.651427	欣	-0.899772
-3.848045	欧	-1.510239
-3.540404	欲	-0.61356
-4.574593	欹	-0.2353614
-4.500966	欺	-0.6909442
-3.035336	款	-1.570211
-3.961013	歇	-0.6019483
-4.21721	歉	-0.934247
-3.236106	歌	-1.136342
-3.413828	止	-1.668572
-3.138545	正	-1.298567
-3.378689	此	-1.513889
-3.168694	步	-1.649883
-2.998653	武	-1.14961
-4.352666	歧	-0.9610929
-4.500966	歪	-0.5319259
-4.352666	歹	-1.097186
-3.516578	死	-0.8225374
-4.352666	歼	-0.3699852
-4.574593	殃	-0.2985542
-4.500966	殆	-0.3857978
-4.574593	殇	-0.2353614
-4.500966	殉	-0.2353614
-4.352666	殊	-1.333125
-3.758479	残	-0.6978832
-3.848045	殖	-1.067039
-4.574593	殚	-0.6762804
-4.574593	殡	-0.2888878
-4.500966	殴	-0.2851586
-3.362131	段	-2.030054
-4.21721	殷	-0.8007712
-3.758479	殿	-0.4015068
-3.848045	毁	-1.214247
-3.719788	毅	-0.9293482
-4.574593	毋	-0.6093336
-3.6209	母	-1.078157
-4.352666	每	-1.415555
-3.565614	毒	-1.050253
-4.574593	毓	-0.2538447
-3.092528	比	-1.405775
-4.21721	毕	-1.367031
-4.574593	毖	-0.3083037
-4.574593	毗	-0.2764524
-4.352666	毙	-0.2888878
-3.516578	毛	-0.9594977
-4.21721	毡	-0.3952416
-4.21721	毫	-1.003162
-4.21721	毯	-1.035302
-3.516578	氏	-1.168347
-2.740987	民	-1.809326
-4.574593	氓	-0.2985542
-2.803594	气	-1.225028
-4.500966	氛	-1.703339
-4.500966	氟	-0.9172767
-4.21721	氢	-0.5715451
-4.574593	氤	-0.2985542
-4.574593	氦	-0.2985542
-3.961013	氧	-0.7350354
-4.352666	氨	-0.2353614
-4.574593	氩	-0.2353614
-4.500966	氮	-0.4649791
-4.500966	氯	-0.2658094
-4.574593	氲	-0.2985542
-2.610959	水	-1.129486
-3.848045	永	-0.6390116
-4.352666	汀	-0.4332424
-3.900867	汁	-0.7180548
-3.201093	求	-1.55475
-3.346182	汇	-1.317574
-3.301572	汉	-0.9218998
-4.500966	汐	-0.2985542
-4.500966	汕	-1.009047
-3.651427	汗	-0.9613742
-4.03085	汛	-0.894146
-4.574593	汝	-0.4408768
-4.500966	汞	-0.2353614
-2.866272	江	-1.424251
-3.493991	池	-0.9569306
-3.848045	污	-1.148205
-3.848045	汤	-0.6488854
-4.574593	汨	-0.2353614
-4.500966	汩	-0.4520048
-4.21721	汪	-1.355095
-4.352666	汰	-1.036863
-4.574593	汲	-0.7247998
-4.500966	汶	-0.2353614
-4.21721	汹	-0.2776417
-3.719788	汽	-1.419533
-4.500966	汾	-0.3550948
-4.21721	沁	-0.55445
-4.21721	沂	-0.5791865
-3.651427	沃	-0.5531927
-4.352666	沅	-0.2658094
-4.500966	沈	-1.247415
-3.848045	沉	-0.6890851
-4.574593	沌	-0.2353614
-4.574593	沏	-0.2353614
-4.21721	沐	-0.4921517
-4.352666	沓	-0.6093337
-3.378689	沙	-0.7672467
-4.11411	沛	-0.5662388
-3.395903	沟	-0.8825574
-3.651427	没	-1.78182
-4.574593	沣	-0.2353614
-4.21721	沥	-0.4052137
-4.574593	沦	-0.5319259
-4.11411	沧	-0.59866
-4.574593	沪	-1.046208
-4.11411	沫	-1.060755
-4.574593	沮	-0.2353614
-4.500966	沱	-0.2985542
-2.836217	河	-1.265467
-4.21721	沸	-0.5086609
-3.035336	油	-1.090193
-3.179228	治	-1.433065
-4.500966	沼	-0.531186
-4.500966	沽	-0.531186
-4.500966	沾	-0.4215706
-3.900867	沿	-1.086769
-4.03085	泄	-0.5179167
-4.574593	泅	-0.2353614
-3.168694	泉	-0.8959169
-3.758479	泊	-0.9605646
-4.574593	泌	-0.4332424
-4.574593	泓	-0.4332424
-2.646987	法	-1.539257
-4.500966	泗	-0.2658094
-4.21721	泛	-1.398918
-4.574593	泞	-0.5301524
-4.574593	泠	-0.2353614
-3.961013	泡	-0.9321694
-3.043059	波	-1.04753
-4.03085	泣	-0.4423049
-3.758479	泥	-0.5634241
-3.565614	注	-1.479294
-3.684264	泪	-0.8105488
-4.574593	泫	-0.2985542
-4.500966	泮	-0.2764524
-4.500966	泯	-0.5139348
-3.378689	泰	-1.09419
-3.900867	泳	-1.09924
-4.21721	泵	-0.516699
-4.574593	泸	-0.4921517
-4.03085	泻	-0.7814988
-4.11411	泼	-0.657853
-3.315939	泽	-1.287717
-4.21721	泾	-0.598455
-3.540404	洁	-0.9455149
-4.574593	洇	-0.2985542
-3.301572	洋	-0.9342815
-4.352666	洌	-0.2764523
-3.758479	洒	-0.9565066
-3.848045	洗	-0.6930541
-4.21721	洙	-0.7342724
-3.540404	洛	-0.6979411
-3.472521	洞	-0.9761654
-3.758479	津	-1.240219
-3.592378	洪	-0.5760227
-4.574593	洮	-0.2764523
-4.574593	洱	-0.4332424
-3.315939	洲	-1.848912
-4.574593	洵	-0.2353614
-3.315939	活	-1.756898
-4.03085	洼	-0.3181006
-4.500966	洽	-0.7062436
-3.110354	派	-1.412256
-2.882118	流	-1.22393
-3.900867	浅	-0.5665261
-3.719788	浆	-0.8797017
-4.352666	浇	-0.5099557
-4.03085	浊	-0.3954538
-3.565614	测	-1.21779
-3.452063	济	-1.873767
-4.574593	浏	-0.5899178
-4.352666	浑	-0.4400924
-4.500966	浒	-1.021514
-4.21721	浓	-0.8662072
-4.574593	浔	-0.2353614
-4.500966	浙	-1.310077
-4.500966	浚	-0.5301524
-4.500966	浜	-0.4332424
-4.500966	浣	-0.2985542
-3.6209	浦	-0.8022326
-3.592378	浩	-0.9224442
-3.395903	浪	-1.051028
-3.800957	浮	-0.6777683
-4.03085	浴	-0.5961291
-2.799127	海	-1.170623
-4.500966	浸	-0.6753028
-4.11411	涂	-0.7317917
-4.11411	涅	-0.373843
-3.848045	消	-1.463357
-3.961013	涉	-1.154827
-4.03085	涌	-1.05129
-4.500966	涎	-0.2353614
-4.500966	涓	-0.2353614
-3.472521	涛	-1.344439
-4.11411	涝	-0.6278781
-4.574593	涟	-0.2985542
-4.352666	涡	-0.3857978
-4.574593	涣	-0.4332424
-4.500966	涤	-0.2353614
-3.6209	润	-1.000762
-4.11411	涧	-0.4843948
-3.651427	涨	-1.036482
-4.352666	涩	-0.3857978
-4.500966	涪	-0.2764523
-4.574593	涮	-0.2353614
-4.21721	涯	-1.132212
-3.800957	液	-0.8221434
-4.03085	涵	-0.8274823
-4.574593	涸	-0.6762804
-4.574593	涿	-0.4332424
-4.11411	淀	-0.7440665
-4.574593	淄	-0.6845888
-4.500966	淅	-0.4271905
-4.574593	淆	-0.2888878
-4.500966	淇	-0.2764523
-3.900867	淋	-0.6506448
-4.500966	淌	-0.7854249
-4.11411	淑	-0.3888128
-4.21721	淘	-0.9487535
-4.352666	淙	-0.2985542
-4.574593	淝	-0.2353614
-4.500966	淞	-0.2353614
-3.800957	淡	-0.7157512
-4.21721	淤	-0.6440958
-4.500966	淦	-0.2353614
-4.500966	淫	-0.2776417
-4.574593	淬	-0.2353614
-4.11411	淮	-1.089848
-3.395903	深	-1.300511
-4.500966	淳	-0.4170248
-4.500966	混	-0.7123352
-4.500966	淹	-0.4271905
-4.03085	添	-0.9581663
-4.500966	淼	-0.2985542
-2.939548	清	-0.9785052
-4.03085	渊	-0.587402
-4.574593	渌	-0.2353614
-4.500966	渍	-0.2764524
-4.500966	渎	-0.7515356
-3.900867	渐	-1.411134
-4.03085	渔	-0.7427816
-4.352666	渗	-0.5912856
-4.352666	渝	-0.8909478
-3.848045	渠	-1.516463
-3.6209	渡	-1.119172
-4.03085	渣	-0.5335444
-4.500966	渤	-0.8833685
-4.574593	渥	-1.067039
-3.565614	温	-1.251435
-4.574593	渭	-0.4603573
-3.110354	港	-1.517511
-4.574593	渲	-0.8311824
-3.848045	渴	-0.9452425
-3.432525	游	-1.185714
-4.352666	渺	-0.3550948
-4.574593	湃	-0.5301524
-4.574593	湄	-0.2353614
-4.574593	湍	-0.2353614
-3.179228	湖	-1.230855
-3.900867	湘	-0.8235698
-4.352666	湛	-0.7520012
-4.500966	湟	-0.2764523
-4.574593	湮	-0.2353614
-3.472521	湾	-1.849159
-3.900867	湿	-0.9245493
-4.500966	溃	-0.6868278
-4.352666	溅	-0.7854249
-4.574593	溆	-0.2353614
-4.574593	溉	-0.9856188
-3.027747	源	-1.349334
-4.574593	溘	-0.2353614
-3.900867	溜	-0.5326372
-4.03085	溢	-0.8968402
-4.500966	溥	-0.3083037
-4.574593	溧	-0.2985542
-3.452063	溪	-0.8400277
-4.21721	溯	-0.4697854
-4.352666	溶	-0.2764524
-4.500966	溺	-0.2985542
-4.574593	滁	-0.2985542
-4.500966	滂	-0.2353614
-4.500966	滇	-0.5139348
-3.800957	滋	-0.7880043
-4.03085	滑	-0.9362317
-4.574593	滓	-0.2353614
-4.352666	滔	-0.5045528
-4.500966	滕	-0.5329142
-3.961013	滚	-0.8221434
-4.21721	滞	-0.697392
-4.574593	滟	-0.2353614
-3.27419	满	-1.223725
-4.500966	滤	-0.2971028
-4.11411	滥	-0.8174399
-4.500966	滦	-0.2658094
-3.848045	滨	-1.011793
-3.493991	滩	-1.023846
-3.800957	滴	-0.6132702
-4.500966	漂	-0.7735533
-4.21721	漆	-0.9103637
-4.500966	漉	-0.2353614
-4.03085	漏	-0.79734
-4.500966	漓	-0.6621606
-3.362131	演	-1.419839
-4.574593	漕	-0.2353614
-4.03085	漠	-0.8792553
-4.574593	漩	-0.2888878
-4.500966	漪	-0.5301524
-4.03085	漫	-0.8568165
-4.500966	漱	-0.2353614
-4.352666	漳	-0.7221677
-4.500966	漾	-0.6762804
-4.500966	潇	-0.8629191
-4.574593	潋	-0.2353614
-4.574593	潍	-0.6093336
-4.352666	潘	-1.402365
-3.961013	潜	-0.8744951
-4.574593	潢	-0.6054075
-3.961013	潭	-0.7178285
-3.362131	潮	-1.126923
-4.574593	潸	-0.2353614
-4.500966	潺	-0.3550948
-4.574593	潼	-0.2353614
-4.11411	澄	-0.3095516
-4.500966	澈	-0.6762804
-4.500966	澎	-0.4505056
-4.21721	澜	-1.106613
-4.500966	澡	-0.2888878
-4.574593	澧	-0.2353614
-4.03085	澳	-1.241454
-4.03085	激	-1.131999
-4.574593	濉	-0.2353614
-4.574593	濑	-0.2353614
-4.574593	濒	-0.9615161
-4.574593	濠	-0.2985541
-4.352666	濡	-0.2353614
-4.574593	濮	-0.2985542
-4.574593	濯	-0.2353614
-4.500966	瀑	-0.4505056
-4.500966	瀚	-0.6762804
-4.352666	瀛	-0.7062436
-3.900867	灌	-0.7256954
-4.574593	灏	-0.2353614
-3.083882	火	-0.8755509
-3.6209	灭	-1.062971
-3.190023	灯	-1.094651
-3.758479	灰	-0.4732772
-3.472521	灵	-0.9073464
-4.03085	灶	-0.6329825
-4.574593	灸	-0.9403995
-4.11411	灼	-0.2908039
-3.452063	灾	-1.802856
-4.03085	灿	-0.7571717
-4.574593	炀	-0.2353614
-3.719788	炉	-0.8122698
-4.352666	炊	-0.4143762
-3.493991	炎	-0.7069287
-4.574593	炒	-0.4921516
-4.574593	炔	-0.2764523
-4.352666	炕	-0.5301524
-4.500966	炙	-0.2985542
-4.21721	炜	-0.5319258
-4.574593	炫	-0.3415066
-4.352666	炬	-0.7709053
-4.03085	炭	-0.958696
-3.719788	炮	-0.6775459
-4.352666	炯	-0.2851585
-4.03085	炳	-0.3596173
-4.21721	炸	-0.6797171
-2.6024	点	-1.556575
-3.758479	炼	-0.9617088
-4.574593	炽	-0.2888878
-4.500966	烁	-0.8339442
-3.800957	烂	-0.9795125
-3.413828	烈	-1.41553
-4.352666	烘	-0.4086051
-4.574593	烙	-0.2764523
-4.21721	烛	-0.4997411
-3.432525	烟	-0.9474207
-4.21721	烤	-0.4968221
-3.900867	烦	-0.7100724
-4.03085	烧	-0.6085913
-4.574593	烨	-0.3083037
-4.500966	烫	-0.356823
-3.138545	热	-1.031921
-4.500966	烯	-0.9451257
-4.574593	烷	-0.2353614
-4.574593	烹	-0.2776417
-4.352666	烽	-0.5192737
-4.11411	焉	-0.4237697
-4.21721	焊	-0.3988329
-4.21721	焕	-0.383447
-4.574593	焖	-0.2353614
-4.21721	焘	-0.4332424
-4.500966	焚	-0.2703029
-4.11411	焦	-0.8294016
-4.574593	焯	-0.2353614
-4.21721	焰	-0.5659482
-2.799127	然	-1.524951
-4.500966	煊	-0.2985542
-4.21721	煌	-1.6736
-4.574593	煎	-0.2971028
-4.500966	煜	-0.2776417
-4.500966	煞	-0.6410704
-3.900867	煤	-0.9448476
-4.500966	煦	-0.2985542
-3.27419	照	-1.277547
-4.574593	煮	-0.4649791
-4.500966	煲	-0.5301524
-4.574593	煽	-0.2353614
-4.574593	熄	-0.3043776
-3.900867	熊	-0.9136398
-4.352666	熏	-0.4287961
-4.574593	熔	-0.252498
-3.900867	熙	-0.4213049
-3.6209	熟	-0.984315
-4.500966	熠	-0.5537348
-4.574593	熨	-0.2353614
-4.352666	熬	-0.8311824
-4.21721	熹	-0.2776417
-3.900867	燃	-0.8397901
-4.574593	燎	-0.3083037
-3.6209	燕	-0.6451978
-4.21721	燥	-0.6410703
-4.574593	燮	-0.2651358
-4.11411	爆	-0.8940039
-4.500966	爪	-0.2353614
-4.352666	爬	-0.6559005
-3.27419	爱	-1.159948
-4.500966	爵	-0.2658094
-3.848045	父	-1.265939
-3.758479	爷	-1.47922
-4.500966	爸	-1.061631
-4.574593	爹	-0.2353614
-3.900867	爽	-0.5899178
-4.500966	爿	-0.2353614
-2.933451	片	-1.669643
-3.261121	版	-1.464773
-2.991675	牌	-1.501459
-4.574593	牖	-0.3083037
-3.6209	牙	-0.7966374
-3.432525	牛	-0.8584734
-4.574593	牟	-0.6014628
-4.574593	牡	-1.308304
-4.03085	牢	-1.014238
-3.961013	牧	-0.7586402
-2.904187	物	-1.41832
-4.352666	牲	-1.01508
-4.500966	牵	-0.6903123
-2.866272	特	-1.343988
-4.352666	牺	-1.410966
-4.574593	犀	-0.2353614
-4.500966	犁	-0.6093336
-4.574593	犄	-0.2353614
-4.574593	犊	-0.2353614
-4.352666	犬	-0.2658094
-3.413828	犯	-1.556629
-3.330797	状	-1.656176
-4.574593	犷	-0.6093336
-4.11411	犹	-0.8696229
-4.03085	狂	-0.7944116
-4.352666	狄	-0.2851586
-4.574593	狈	-0.2353614
-4.03085	狐	-0.5736313
-4.352666	狗	-0.3448466
-4.574593	狙	-0.4332424
-4.574593	狞	-0.2353614
-4.352666	狠	-1.166519
-4.574593	狡	-0.2353614
-3.540404	独	-1.037772
-4.574593	狭	-0.3849568
-3.900867	狮	-0.6912262
-4.574593	狰	-0.2985542
-4.03085	狱	-1.024424
-4.500966	狸	-0.3283615
-4.500966	狼	-0.3741054
-4.03085	猎	-0.4320224
-4.574593	猕	-0.2353614
-4.574593	猖	-0.9421003
-3.848045	猛	-0.7646096
-4.352666	猜	-0.3901962
-4.574593	猝	-0.2353614
-4.574593	猩	-0.2353614
-3.758479	猪	-1.056401
-4.11411	猫	-0.6506448
-4.574593	猬	-0.2353614
-3.800957	献	-1.444094
-4.11411	猴	-0.593116
-4.574593	猿	-0.2353614
-4.574593	獗	-1.061631
-4.500966	玄	-0.2835146
-2.71827	率	-2.09342
-3.224119	玉	-0.5966281
-3.287666	王	-1.619125
-4.500966	玑	-0.2985542
-4.574593	玒	-0.2353614
-4.352666	玖	-0.3857978
-3.540404	玛	-0.6136413
-3.900867	玩	-0.8024846
-4.574593	玫	-0.3083036
-4.574593	玮	-0.2353614
-3.432525	环	-1.408665
-3.395903	现	-1.956395
-3.592378	玲	-1.29358
-4.574593	玷	-0.2353614
-4.500966	玺	-0.2985542
-4.500966	玻	-0.9297783
-4.574593	珀	-1.132212
-4.500966	珂	-0.2888878
-4.352666	珉	-0.3857978
-4.11411	珊	-0.5715451
-3.330797	珍	-0.9867924
-4.352666	珏	-0.3083037
-4.500966	珑	-0.4332424
-4.574593	珙	-0.2985542
-4.500966	珞	-0.2353614
-3.432525	珠	-0.9398798
-4.574593	珣	-0.2353614
-4.352666	珩	-0.3083037
-3.15841	班	-1.217058
-4.574593	珮	-0.7854249
-4.574593	珹	-0.2353614
-4.574593	珺	-0.4649791
-3.092528	球	-1.380217
-4.352666	琅	-0.5460764
-2.915657	理	-1.686757
-4.574593	琉	-0.2985542
-4.352666	琏	-0.4332424
-4.500966	琐	-0.3058457
-3.961013	琛	-2.155465
-4.352666	琢	-0.7854248
-4.574593	琤	-0.2353614
-4.574593	琥	-0.2353614
-3.961013	琦	-0.8900917
-4.500966	琨	-0.5319258
-3.848045	琪	-0.6900261
-4.500966	琮	-0.2985542
-3.848045	琳	-0.8861734
-3.432525	琴	-1.572448
-4.574593	琵	-0.2985542
-4.574593	琶	-0.2353614
-4.03085	琼	-0.7230646
-4.500966	瑁	-0.2353614
-4.574593	瑄	-0.2353614
-4.500966	瑕	-0.3043776
-4.574593	瑙	-0.2985542
-4.500966	瑚	-0.4505056
-4.352666	瑛	-0.292086
-3.900867	瑜	-1.132212
-3.452063	瑞	-0.9688365
-4.352666	瑟	-0.255421
-4.500966	瑰	-0.4571258
-3.961013	瑶	-0.5906843
-4.11411	瑾	-0.5786716
-4.574593	璀	-0.6762804
-4.500966	璃	-0.6565835
-4.11411	璇	-0.8329558
-4.574593	璈	-0.2353614
-4.11411	璋	-0.5301524
-4.574593	璎	-0.2353614
-4.500966	璐	-0.4062473
-4.500966	璜	-0.2985542
-4.21721	璞	-0.5715451
-4.03085	璧	-0.356823
-4.574593	璨	-0.5319258
-3.651427	瓜	-0.6540523
-4.500966	瓢	-0.2888878
-4.574593	瓣	-0.4649791
-4.500966	瓤	-0.2353614
-3.315939	瓦	-0.6836596
-4.574593	瓮	-0.2353614
-4.352666	瓯	-0.2658094
-4.574593	瓴	-0.2985542
-3.800957	瓶	-0.9024929
-4.11411	瓷	-0.513341
-4.574593	甄	-0.2353614
-3.848045	甘	-0.6978703
-4.11411	甚	-1.419443
-4.21721	甜	-0.5783119
-2.480105	生	-1.603674
-4.574593	甥	-0.3083037
-2.841084	用	-1.678462
-4.574593	甩	-0.6916341
-3.592378	甫	-1.149226
-4.574593	甬	-0.3372497
-4.574593	甭	-0.2353614
-2.971387	田	-1.232145
-3.565614	由	-1.855247
-3.651427	甲	-0.7030874
-3.900867	申	-1.05322
-3.050922	电	-1.616838
-3.848045	男	-1.062767
-4.03085	甸	-0.7263016
-3.287666	画	-1.077496
-3.961013	畅	-0.8778161
-2.927438	界	-1.790392
-4.03085	畏	-0.7585052
-4.21721	畔	-1.035302
-3.432525	留	-1.120179
-4.574593	畛	-0.2353614
-4.03085	畜	-0.856592
-3.493991	略	-1.480585
-4.574593	畦	-0.2353614
-3.961013	番	-1.245046
-4.574593	畲	-0.3083037
-4.352666	畴	-0.8007712
-4.352666	畸	-0.3952417
-4.11411	疆	-1.469781
-4.21721	疏	-0.6157798
-3.6209	疑	-1.20831
-3.961013	疗	-1.317106
-4.574593	疙	-0.2353614
-4.352666	疚	-0.4332424
-4.574593	疟	-0.2353614
-4.574593	疡	-0.2353614
-4.352666	疤	-0.3043776
-3.900867	疫	-0.6784825
-4.352666	疮	-0.2764524
-4.574593	疯	-0.5557053
-4.352666	疲	-0.4858918
-4.574593	疴	-0.2353614
-4.500966	疵	-0.2888878
-4.500966	疹	-0.2985542
-4.11411	疼	-0.8137326
-3.900867	疾	-0.9914962
-2.998653	病	-1.057365
-3.472521	症	-1.067971
-4.574593	痊	-0.2353614
-4.574593	痍	-0.2353614
-4.500966	痒	-0.3083037
-4.574593	痔	-0.2353614
-3.758479	痕	-1.035303
-3.362131	痛	-0.8087853
-4.574593	痪	-0.9773104
-4.500966	痫	-0.3569982
-4.352666	痰	-0.2353614
-4.352666	痴	-0.292414
-4.21721	痹	-0.6824537
-4.574593	痼	-0.4332424
-4.574593	瘁	-0.2353614
-4.500966	瘟	-0.5553275
-4.500966	瘠	-0.5899178
-4.352666	瘤	-0.7827917
-3.961013	瘦	-0.5323123
-4.574593	瘩	-0.2353614
-4.500966	瘪	-0.2985542
-4.352666	瘫	-0.8523718
-4.574593	瘸	-0.2353614
-4.03085	瘾	-0.9451257
-4.574593	瘿	-0.2353614
-3.848045	癌	-0.9248027
-4.574593	癣	-0.3083037
-4.574593	癫	-0.6762804
-4.574593	癸	-0.2353614
-3.516578	登	-1.01263
-3.27419	白	-0.8259748
-3.248433	百	-1.251554
-4.500966	皂	-0.2353614
-3.15841	的	-3.440313
-4.03085	皆	-0.6186432
-3.758479	皇	-0.6275293
-4.352666	皋	-0.2764523
-4.574593	皎	-0.3083037
-4.21721	皑	-0.5301524
-4.352666	皓	-0.2658094
-4.500966	皖	-0.2920861
-4.574593	皙	-0.2353614
-3.330797	皮	-0.6256651
-4.574593	皱	-0.2658094
-4.574593	皴	-0.2353614
-4.574593	皿	-0.2353614
-4.574593	盂	-0.2353614
-4.03085	盆	-0.8345566
-3.651427	盈	-0.8991628
-3.362131	益	-1.556922
-4.21721	盎	-0.7072773
-4.03085	盏	-1.096769
-3.961013	盐	-0.5714464
-4.21721	监	-1.469038
-3.758479	盒	-0.7400397
-4.574593	盔	-0.2353614
-3.472521	盖	-0.8763874
-3.961013	盗	-0.9266407
-3.27419	盘	-1.017065
-3.540404	盛	-1.051749
-3.493991	盟	-1.616597
-3.035336	目	-1.73011
-4.574593	盯	-0.7854249
-4.574593	盱	-0.2353614
-4.21721	盲	-0.7714425
-3.301572	直	-1.221013
-3.020289	相	-1.157368
-4.574593	盹	-0.2353614
-3.848045	盼	-1.154189
-3.961013	盾	-1.892539
-3.058931	省	-1.674708
-4.500966	眈	-0.2353614
-3.719788	眉	-0.4413911
-3.493991	看	-1.554451
-3.330797	真	-1.280322
-3.900867	眠	-0.5661658
-4.574593	眨	-0.3043776
-4.574593	眩	-0.3083037
-4.352666	眯	-0.2888878
-4.21721	眶	-0.6845888
-4.352666	眷	-0.5460764
-4.11411	眸	-0.5845447
-4.500966	眺	-0.4505056
-3.119549	眼	-0.9852325
-3.236106	着	-2.051033
-4.500966	睁	-0.6868278
-4.574593	睐	-0.6093336
-4.21721	睛	-1.50328
-4.11411	睡	-0.8140372
-4.574593	睢	-0.2353614
-4.21721	督	-1.324155
-4.500966	睦	-0.8311824
-4.352666	睫	-0.5596501
-4.11411	睹	-1.349696
-4.500966	睽	-0.2985542
-4.574593	睿	-0.2776417
-4.574593	瞄	-0.8007712
-4.500966	瞅	-0.3857978
-4.500966	瞌	-0.2985542
-4.574593	瞎	-0.2353614
-4.500966	瞒	-0.657853
-4.574593	瞟	-0.2353614
-4.574593	瞠	-0.2353614
-4.500966	瞧	-0.7128802
-4.21721	瞩	-0.9834837
-4.352666	瞪	-0.3590329
-4.352666	瞬	-0.7171702
-4.500966	瞰	-0.5301524
-4.352666	瞻	-0.5450981
-4.574593	瞿	-0.4649791
-4.574593	矍	-0.2985542
-4.500966	矗	-0.7660091
-4.11411	矛	-1.76976
-4.574593	矜	-0.2353614
-4.500966	矢	-0.4062473
-4.500966	矣	-0.9103636
-3.261121	知	-1.38505
-4.352666	矩	-0.8909478
-4.500966	矫	-0.3590329
-4.574593	矬	-0.2353614
-3.684264	短	-1.024088
-4.352666	矮	-0.3158201
-2.984806	石	-1.018115
-4.574593	矶	-0.6410704
-4.574593	矸	-0.2353614
-4.574593	矾	-0.2353614
-3.315939	矿	-1.01991
-4.574593	砀	-0.2353614
-3.6209	码	-1.17175
-3.848045	砂	-0.5890617
-4.500966	砌	-0.6093336
-4.500966	砍	-0.8197232
-3.565614	研	-1.893677
-4.352666	砖	-0.5171303
-4.352666	砚	-0.2658094
-4.500966	砥	-0.2764523
-4.500966	砭	-0.2851586
-4.574593	砰	-0.2353614
-3.452063	破	-1.214687
-4.574593	砸	-0.6936891
-4.500966	砺	-0.2985542
-4.574593	砻	-0.2985542
-4.574593	砼	-0.2353614
-4.500966	砾	-0.2985542
-4.574593	础	-1.904534
-4.500966	硅	-0.2764524
-4.574593	硌	-0.2985542
-4.21721	硕	-0.8713152
-4.500966	硝	-0.5791864
-4.574593	硫	-0.2353614
-3.719788	硬	-0.8071306
-3.848045	确	-1.701292
-4.500966	碌	-0.8563575
-4.21721	碍	-1.561889
-3.719788	碎	-0.7821863
-3.719788	碑	-0.9942943
-3.900867	碗	-1.098381
-4.500966	碘	-0.2353614
-4.21721	碟	-0.6428555
-4.574593	碣	-0.2353614
-3.848045	碧	-0.5122938
-4.11411	碰	-0.5689703
-4.11411	碱	-0.524096
-4.352666	碳	-0.6440958
-4.574593	碾	-0.2888878
-4.500966	磁	-0.3415066
-4.21721	磅	-0.6093336
-4.352666	磊	-1.346444
-4.500966	磋	-1.238876
-4.574593	磐	-0.2353614
-4.500966	磕	-0.3666482
-3.848045	磨	-0.6228416
-4.11411	磷	-0.4170248
-4.500966	礁	-0.2353614
-4.574593	礴	-0.7342724
-3.452063	示	-1.921449
-3.212453	礼	-1.083341
-3.083882	社	-2.3067
-4.500966	祀	-0.2985542
-4.574593	祁	-0.3906041
-4.574593	祈	-0.5086608
-4.574593	祉	-0.3083037
-3.565614	祖	-1.083336
-4.574593	祚	-0.2764524
-4.500966	祛	-0.2595466
-4.500966	祜	-0.2764524
-3.848045	祝	-1.322884
-3.168694	神	-1.292463
-4.574593	祟	-0.5301524
-4.21721	祠	-0.2888878
-3.15841	祥	-0.9287788
-3.201093	票	-1.320858
-4.21721	祭	-0.415498
-4.21721	祯	-0.3857978
-4.500966	祷	-0.6868278
-3.848045	祸	-0.4817617
-4.500966	祺	-0.7854249
-4.574593	禀	-0.2353614
-3.651427	禁	-0.967629
-3.719788	禄	-0.9910561
-4.352666	禅	-0.3083037
-3.128943	福	-0.9863626
-4.500966	禧	-0.2985542
-4.352666	禹	-0.2764524
-4.500966	禺	-0.6093337
-3.432525	离	-1.187735
-3.848045	禽	-0.8661556
-4.352666	禾	-0.3857978
-3.362131	秀	-1.011018
-3.540404	私	-1.009381
-4.574593	秃	-0.2353614
-3.900867	秆	-0.8909478
-4.500966	秉	-0.4338047
-3.378689	秋	-0.7232111
-3.083882	种	-1.888367
-2.861116	科	-1.493572
-4.11411	秒	-1.147905
-3.848045	秘	-1.449935
-3.848045	租	-0.857729
-4.21721	秤	-0.766009
-4.21721	秦	-0.8653342
-3.961013	秧	-0.8833685
-4.574593	秩	-1.8804
-3.684264	积	-1.525994
-3.378689	称	-1.334191
-4.574593	秸	-0.6093336
-3.800957	移	-1.250374
-4.352666	秽	-0.3857978
-3.848045	稀	-0.5056929
-3.248433	程	-1.828429
-4.574593	稍	-0.6606789
-3.15841	税	-1.247857
-4.352666	稔	-0.2776417
-4.352666	稚	-0.6762804
-4.574593	稞	-0.2985542
-4.21721	稠	-0.2703029
-4.574593	稣	-0.6762804
-3.848045	稳	-1.655324
-3.800957	稻	-1.049966
-4.500966	稼	-0.5329142
-4.21721	稽	-0.5826658
-3.413828	稿	-1.192224
-4.03085	穆	-0.6209307
-4.574593	穑	-0.2353614
-4.03085	穗	-0.6200644
-3.961013	穴	-0.6410703
-3.758479	究	-1.778558
-3.848045	穷	-0.9778165
-4.500966	穹	-0.3952416
-3.083882	空	-1.030662
-3.758479	穿	-1.029107
-4.11411	突	-1.491145
-4.11411	窃	-0.7679251
-4.500966	窄	-0.7180548
-4.574593	窈	-0.2353614
-4.21721	窍	-0.2658094
-3.848045	窑	-0.8054828
-4.574593	窒	-0.4332424
-4.574593	窕	-0.2353614
-4.500966	窖	-0.4332424
-3.651427	窗	-0.9728642
-4.500966	窘	-0.2868121
-4.352666	窜	-0.4649791
-3.800957	窝	-0.5149085
-4.352666	窟	-0.2888878
-4.574593	窠	-0.2353614
-4.21721	窥	-0.2733667
-4.500966	窦	-0.7180548
-4.574593	窿	-0.2353614
-2.96483	立	-1.39734
-4.500966	竖	-0.5431573
-2.927438	站	-1.524768
-4.11411	竞	-1.378786
-4.352666	竟	-1.413602
-3.092528	章	-1.465085
-4.500966	竣	-1.321411
-3.719788	童	-1.214257
-3.961013	竭	-0.6273413
-3.330797	端	-1.16881
-3.651427	竹	-0.690505
-4.21721	竿	-0.3857978
-4.500966	笃	-0.2595466
-4.500966	笆	-0.2985542
-4.21721	笋	-0.3568229
-3.346182	笑	-0.9963143
-3.212453	笔	-1.015941
-4.500966	笙	-0.2985542
-4.03085	笛	-0.4949239
-4.574593	笠	-0.2353614
-3.961013	符	-1.448365
-4.574593	笨	-0.2658094
-4.03085	第	-1.891698
-4.574593	笮	-0.2353614
-4.574593	笳	-0.2353614
-4.574593	笺	-0.2353614
-3.900867	笼	-0.9433665
-3.362131	等	-2.002197
-4.03085	筋	-0.7816603
-4.500966	筏	-0.2353614
-4.352666	筐	-0.3083037
-4.03085	筑	-1.208263
-3.961013	筒	-0.8311824
-3.848045	答	-1.084682
-3.6209	策	-1.775259
-4.574593	筛	-0.6410704
-4.500966	筝	-0.2888878
-4.574593	筠	-0.2353614
-4.574593	筱	-0.2353614
-4.574593	筵	-0.2353614
-4.500966	筷	-0.7342724
-3.961013	筹	-1.079145
-4.11411	签	-1.262012
-3.758479	简	-0.9626461
-4.500966	箔	-0.2985542
-4.574593	箕	-0.2353614
-3.301572	算	-1.307561
-2.991675	管	-1.669406
-4.574593	箩	-0.2985542
-4.11411	箫	-0.4520048
-3.961013	箭	-1.283515
-3.330797	箱	-1.298212
-4.03085	箴	-0.4505056
-4.352666	篆	-0.6561247
-3.565614	篇	-1.338954
-4.574593	篑	-0.2353614
-4.21721	篓	-0.657853
-4.574593	篙	-0.2985542
-4.574593	篝	-0.7854249
-4.574593	篡	-0.2985542
-4.574593	篪	-0.2353614
-3.800957	篮	-1.468401
-4.574593	篱	-0.2353614
-4.352666	篷	-1.322544
-4.500966	篾	-0.2764523
-4.11411	簇	-0.715789
-4.500966	簌	-0.2353614
-4.352666	簪	-0.2658094
-4.574593	簸	-0.4332424
-3.900867	簿	-0.7829669
-4.21721	籁	-0.7282205
-3.452063	籍	-1.724254
-3.168694	米	-1.201368
-3.179228	类	-1.720077
-4.574593	籼	-0.2353614
-4.03085	籽	-0.3372497
-3.493991	粉	-0.7904999
-4.500966	粑	-0.3083037
-3.684264	粒	-0.7973402
-4.574593	粕	-0.2353614
-4.352666	粗	-0.5511286
-4.574593	粘	-0.3181006
-4.500966	粟	-0.464979
-4.500966	粤	-0.4138266
-4.574593	粥	-0.2353614
-4.21721	粪	-0.605796
-3.413828	粮	-1.212459
-4.500966	粱	-0.2888878
-4.500966	粲	-0.2764524
-4.500966	粳	-0.2353614
-4.352666	粹	-1.061631
-4.574593	粽	-0.2985542
-3.6209	精	-1.312077
-4.574593	糅	-0.2353614
-4.11411	糊	-0.7080171
-4.574593	糌	-0.2985542
-4.574593	糍	-0.2353614
-4.21721	糕	-0.9773104
-3.848045	糖	-0.6115483
-4.574593	糙	-0.2353614
-4.500966	糜	-0.2764524
-4.352666	糟	-0.3568229
-4.574593	糠	-0.2353614
-4.352666	糯	-0.2985542
-3.148364	系	-2.120611
-4.500966	紊	-0.4649791
-3.432525	素	-1.290374
-3.301572	索	-1.077006
-3.651427	紧	-1.425447
-4.11411	紫	-0.3548706
-3.719788	累	-1.294157
-4.500966	絮	-0.2353614
-3.961013	繁	-1.131633
-4.574593	繇	-0.2353614
-4.500966	纂	-0.6868278
-4.500966	纠	-0.9326664
-3.012957	红	-0.9166278
-4.574593	纣	-0.2353614
-3.961013	纤	-0.7578548
-3.261121	约	-1.453381
-2.991675	级	-1.792133
-3.330797	纪	-1.484872
-4.574593	纫	-0.2353614
-4.11411	纬	-0.692615
-4.574593	纭	-0.2353614
-3.848045	纯	-0.8027536
-4.574593	纰	-0.2353614
-3.800957	纱	-0.5912856
-3.900867	纲	-1.037465
-3.058931	纳	-0.988785
-3.900867	纵	-0.5952414
-4.500966	纶	-0.2985542
-3.900867	纷	-1.432196
-3.413828	纸	-0.985233
-3.848045	纹	-0.7547629
-4.11411	纺	-1.210221
-4.21721	纽	-1.166741
-2.777458	线	-1.642751
-4.574593	绀	-0.2353614
-4.574593	绂	-0.2353614
-3.592378	练	-1.12476
-3.012957	组	-1.903842
-4.352666	绅	-0.2764523
-3.378689	细	-0.8636355
-3.758479	织	-1.680266
-3.719788	终	-1.242458
-4.21721	绊	-0.2658094
-4.11411	绍	-1.283476
-4.500966	绎	-0.6762804
-2.998653	经	-2.010164
-4.500966	绑	-0.4062473
-3.961013	绒	-0.4421772
-3.236106	结	-1.596064
-3.961013	绕	-1.545845
-4.11411	绘	-0.9405748
-3.6209	给	-2.112084
-4.574593	绚	-0.808906
-3.900867	络	-1.332175
-3.516578	绝	-1.010032
-4.500966	绞	-0.2920861
-3.719788	统	-1.808997
-4.352666	绢	-0.4649791
-4.352666	绣	-0.5485495
-4.352666	绥	-0.3486699
-3.848045	继	-1.404185
-3.719788	绩	-2.107589
-3.848045	绪	-0.9638796
-4.574593	绫	-0.2985542
-3.900867	续	-2.104081
-4.574593	绮	-0.2764524
-4.574593	绯	-0.4170248
-3.848045	绳	-0.764571
-3.212453	维	-1.019241
-3.900867	绵	-0.6902328
-4.574593	绶	-0.2353614
-4.574593	绷	-0.2353614
-4.21721	绸	-0.4759865
-4.500966	综	-1.34966
-4.352666	绽	-0.4465609
-4.574593	绾	-0.2353614
-3.540404	绿	-0.869534
-4.21721	缀	-0.9451257
-4.574593	缄	-0.2353614
-4.500966	缅	-0.4997411
-4.11411	缆	-1.060755
-4.574593	缇	-0.2353614
-4.11411	缉	-0.593116
-4.352666	缎	-0.2888878
-3.719788	缓	-1.055285
-4.500966	缔	-0.7966009
-4.11411	缕	-0.6762804
-3.362131	编	-0.9928367
-3.540404	缘	-0.8222829
-4.500966	缚	-1.211394
-4.574593	缜	-0.4332424
-3.848045	缝	-0.6371223
-4.574593	缟	-0.2353614
-4.352666	缠	-0.5329142
-4.500966	缤	-1.035302
-4.500966	缨	-0.2353614
-3.719788	缩	-0.9647035
-4.500966	缪	-0.7342724
-4.500966	缭	-0.2888878
-4.574593	缮	-0.3083037
-4.574593	缰	-0.2353614
-3.900867	缴	-1.032095
-4.574593	缶	-0.2985542
-4.352666	缸	-0.3083037
-3.592378	缺	-1.083326
-4.574593	罄	-0.2353614
-3.961013	罐	-0.5442994
-3.092528	网	-1.371212
-4.574593	罔	-0.2985542
-3.961013	罕	-0.8550892
-3.067089	罗	-1.134676
-4.574593	罘	-0.2985542
-3.848045	罚	-1.260481
-4.21721	罢	-0.8203036
-4.21721	罩	-0.9451257
-3.413828	罪	-1.437491
-3.493991	置	-1.448406
-3.540404	署	-1.838252
-4.574593	罹	-0.5301524
-4.500966	羁	-0.6824537
-3.651427	羊	-0.7013444
-4.574593	羌	-0.3083037
-2.933451	美	-1.516621
-4.574593	羔	-0.3083037
-4.500966	羚	-0.3590329
-4.21721	羞	-0.3081289
-4.574593	羟	-0.2353614
-4.03085	羡	-0.6144326
-3.138545	群	-1.618148
-4.500966	羲	-0.2353614
-4.574593	羹	-0.5301524
-4.21721	羽	-0.6792833
-3.961013	翁	-0.8499448
-4.21721	翅	-0.5319259
-4.574593	翊	-0.5301524
-4.574593	翌	-0.2764524
-4.352666	翎	-0.2764523
-3.719788	翔	-0.7690035
-4.574593	翕	-0.2353614
-4.574593	翘	-0.4505056
-4.574593	翟	-0.9451257
-3.848045	翠	-0.5423924
-4.574593	翡	-0.2353614
-4.574593	翦	-0.2985542
-4.21721	翩	-0.6075447
-4.21721	翰	-0.6859868
-4.574593	翱	-0.2353614
-3.961013	翻	-0.711677
-3.493991	翼	-1.003093
-3.6209	耀	-0.66316
-3.058931	老	-1.023359
-3.565614	考	-1.292833
-4.574593	耄	-0.2353614
-2.398703	者	-2.449708
-4.500966	耆	-0.2353614
-4.574593	耋	-0.2353614
-2.777458	而	-1.537419
-4.500966	耍	-0.7342724
-3.848045	耐	-0.5628437
-4.574593	耒	-0.2353614
-4.03085	耕	-0.8893849
-3.900867	耗	-0.7684399
-4.352666	耘	-0.9103636
-4.574593	耙	-0.2353614
-4.574593	耦	-0.2353614
-3.493991	耳	-0.8031113
-3.592378	耶	-0.8992888
-4.574593	耷	-0.2353614
-4.352666	耸	-0.3415066
-3.961013	耻	-0.6762804
-4.574593	耽	-0.5596501
-4.352666	耿	-0.3403135
-4.574593	聂	-0.8833686
-4.574593	聆	-0.4649791
-4.500966	聊	-0.7411224
-4.21721	聋	-0.633699
-3.15841	职	-1.766612
-3.075404	联	-1.429495
-3.800957	聘	-0.9858425
-3.719788	聚	-1.082733
-4.574593	聩	-0.2985542
-4.11411	聪	-0.6881956
-4.352666	聿	-0.2764524
-4.11411	肃	-1.105957
-4.574593	肄	-0.2353614
-4.11411	肆	-0.598455
-4.574593	肇	-0.827654
-3.413828	肉	-0.8992118
-4.500966	肋	-0.2764524
-4.352666	肌	-0.2658094
-4.11411	肖	-1.059422
-4.352666	肘	-0.3857978
-4.11411	肚	-0.7451784
-4.500966	肝	-0.4062473
-3.800957	肠	-0.5918339
-3.493991	股	-1.544217
-4.03085	肢	-0.5553275
-4.11411	肤	-0.4745171
-3.651427	肥	-0.8342046
-4.03085	肩	-0.786026
-4.574593	肪	-0.5319259
-3.900867	肯	-1.382772
-3.346182	育	-1.546436
-4.500966	肴	-0.872575
-4.21721	肺	-0.3569281
-4.500966	肽	-0.3083037
-4.574593	肾	-0.4921517
-4.21721	肿	-0.8481958
-4.11411	胀	-1.660486
-4.500966	胁	-1.277363
-4.574593	胃	-0.3857978
-3.848045	胆	-0.8577847
-3.800957	背	-0.9511951
-4.03085	胎	-1.067039
-4.21721	胖	-0.5845447
-4.574593	胚	-0.6093336
-3.236106	胜	-1.080535
-3.961013	胞	-1.8424
-3.848045	胡	-1.300021
-4.500966	胥	-0.2764524
-4.574593	胧	-0.2353614
-4.574593	胫	-0.3083037
-4.574593	胰	-0.2658094
-4.574593	胳	-0.7854249
-3.961013	胶	-0.5098612
-4.03085	胸	-0.6267647
-4.500966	胺	-0.2985542
-3.119549	能	-1.912546
-3.900867	脂	-0.5212528
-4.352666	脆	-1.029251
-3.6209	脉	-0.821354
-4.03085	脊	-0.7277126
-4.574593	脍	-0.2985542
-4.11411	脏	-0.7864524
-4.500966	脐	-0.2353614
-3.472521	脑	-1.046945
-4.574593	脓	-0.2353614
-4.500966	脖	-0.7342724
-3.346182	脚	-0.9105244
-4.574593	脯	-0.3083037
-3.684264	脱	-1.199137
-3.848045	脸	-0.8201059
-4.574593	脾	-0.2985541
-4.03085	腊	-0.7715749
-4.574593	腋	-0.3083037
-4.574593	腌	-0.2353614
-3.961013	腐	-1.335071
-4.574593	腑	-0.3043776
-3.800957	腔	-0.7080171
-4.11411	腕	-0.5319258
-4.500966	腥	-0.2353614
-4.574593	腮	-0.2764524
-4.03085	腰	-0.617811
-4.574593	腴	-0.2353614
-3.900867	腹	-0.4301451
-4.500966	腺	-0.6054075
-4.500966	腻	-0.8311824
-3.472521	腾	-0.9768936
-3.684264	腿	-0.8146605
-4.11411	膀	-0.8361541
-4.574593	膊	-0.7854249
-4.21721	膏	-0.2595466
-4.574593	膘	-0.2353614
-4.352666	膛	-0.3083037
-3.800957	膜	-0.8723629
-4.352666	膝	-0.33898
-4.500966	膨	-1.664551
-4.574593	膳	-0.2353614
-4.574593	膺	-0.2353614
-4.574593	臀	-0.2353614
-3.848045	臂	-0.7494644
-4.574593	臃	-0.5301524
-4.574593	臆	-0.2353614
-3.516578	臣	-1.612095
-4.574593	臧	-0.2353614
-3.075404	自	-1.370826
-4.21721	臭	-0.7085727
-3.395903	至	-1.649927
-3.432525	致	-1.302373
-4.21721	臻	-0.4681773
-4.500966	臼	-0.2985542
-4.574593	臾	-0.2353614
-4.574593	舀	-0.2985542
-4.21721	舅	-0.2888878
-4.574593	舆	-1.860566
-3.961013	舌	-0.5339811
-3.395903	舍	-0.7380161
-4.21721	舒	-0.6178652
-4.352666	舜	-0.2776417
-3.287666	舞	-1.278707
-3.961013	舟	-0.7808393
-3.248433	航	-1.19527
-4.500966	舫	-0.6093336
-3.961013	般	-1.374691
-3.961013	舰	-0.8752506
-3.800957	舱	-0.900891
-4.574593	舵	-0.2985542
-4.574593	舶	-1.337801
-4.500966	舷	-0.2353614
-4.352666	舸	-0.7854249
-3.224119	船	-0.9927452
-4.574593	舾	-0.2353614
-3.900867	艇	-1.322544
-4.352666	艘	-1.191455
-4.500966	艮	-0.2985542
-3.043059	良	-1.2552
-4.11411	艰	-1.535935
-2.861116	色	-1.530995
-3.719788	艳	-0.893999
-3.432525	艺	-1.463337
-4.11411	艾	-0.7413704
-3.005746	节	-1.505635
-4.500966	芊	-0.2353614
-4.574593	芋	-0.2353614
-4.574593	芍	-0.2985542
-4.21721	芒	-0.6054075
-4.574593	芗	-0.2353614
-4.500966	芙	-0.7854249
-4.500966	芜	-0.4332424
-3.800957	芝	-0.540322
-4.574593	芥	-0.2353614
-4.574593	芦	-0.754763
-3.565614	芬	-0.7928855
-4.500966	芭	-0.969273
-4.21721	芯	-0.808906
-4.574593	芰	-0.2353614
-2.785997	花	-0.844653
-3.148364	芳	-1.046321
-4.574593	芷	-0.2353614
-4.352666	芸	-0.2851586
-4.21721	芹	-0.6468002
-4.11411	芽	-0.5237724
-4.574593	芾	-0.2353614
-4.574593	苇	-0.2658094
-4.574593	苋	-0.2353614
-3.961013	苍	-0.5131788
-3.432525	苏	-1.050935
-3.848045	苑	-0.8007711
-4.500966	苔	-0.2353614
-4.574593	苕	-0.2985542
-3.592378	苗	-0.8873838
-4.574593	苛	-0.5301524
-4.574593	苜	-0.2353614
-4.500966	苞	-0.2658094
-4.500966	苟	-0.6145079
-4.574593	苣	-0.5301524
-3.432525	若	-0.8223221
-3.287666	苦	-1.016508
-4.574593	苫	-0.2353614
-4.574593	苯	-0.2353614
-2.984806	英	-1.225126
-4.500966	苹	-0.9172767
-4.574593	茁	-0.4649791
-3.540404	茂	-0.6161073
-3.472521	范	-1.444922
-4.352666	茄	-0.3043776
-4.11411	茅	-0.6102014
-4.574593	茉	-0.6762804
-4.500966	茎	-0.2985542
-4.574593	茏	-0.2985542
-4.574593	茔	-0.2353614
-4.21721	茗	-0.5301524
-4.500966	茜	-0.5301524
-4.21721	茧	-0.2658094
-3.758479	茨	-0.5921255
-4.11411	茫	-0.8445008
-4.500966	茬	-0.5899178
-4.574593	茭	-0.2764523
-4.11411	茵	-0.5596501
-3.6209	茶	-0.814391
-4.500966	茸	-0.5899178
-3.961013	茹	-0.4921517
-4.574593	荀	-0.2764523
-4.352666	荃	-0.3083037
-4.21721	荆	-0.4720086
-3.190023	草	-0.8927131
-4.500966	荐	-1.067039
-3.540404	荒	-0.7993336
-4.352666	荔	-0.4681773
-4.574593	荚	-0.2985542
-4.500966	荞	-0.2353614
-4.500966	荟	-0.8311824
-3.493991	荡	-1.251185
-2.96483	荣	-1.075484
-4.500966	荤	-0.2985542
-4.574593	荧	-1.101801
-4.574593	荩	-0.2353614
-4.352666	荪	-0.4332424
-3.800957	荫	-0.5366564
-3.138545	药	-1.101578
-4.03085	荷	-0.8954466
-4.574593	荻	-0.3857978
-4.574593	荼	-0.3083037
-4.574593	莅	-0.2353614
-4.574593	莆	-0.3083037
-3.800957	莉	-0.7263016
-3.900867	莎	-0.4047473
-4.574593	莒	-0.2353614
-4.574593	莓	-0.2353614
-4.500966	莘	-0.3083037
-4.574593	莞	-0.2985542
-4.574593	莠	-0.2985542
-3.432525	莫	-0.741998
-3.516578	莱	-0.6977672
-3.493991	莲	-0.7556616
-3.565614	获	-1.618101
-4.11411	莹	-0.7049103
-4.21721	莺	-0.5175979
-4.11411	莽	-0.6600628
-4.500966	菁	-0.2764523
-4.574593	菅	-0.2353614
-4.500966	菇	-0.872575
-3.684264	菊	-0.7977014
-3.961013	菌	-0.85339
-4.574593	菏	-0.8311824
-3.236106	菜	-1.29773
-4.574593	菠	-0.2353614
-4.500966	菡	-0.2764523
-4.574593	菩	-0.2985542
-4.352666	菱	-0.6868278
-3.651427	菲	-1.041571
-4.21721	萃	-1.035302
-4.574593	萄	-0.6809422
-4.500966	萋	-0.2353614
-4.574593	萌	-0.5301524
-3.565614	萍	-0.9242724
-4.574593	萎	-0.6200644
-4.11411	萝	-0.9878578
-3.212453	营	-1.473907
-4.500966	萦	-0.2353614
-4.11411	萧	-0.8122698
-3.330797	萨	-0.7821142
-4.11411	萱	-0.5301524
-4.574593	萸	-0.2353614
-2.998653	落	-1.296699
-4.11411	葆	-0.5623305
-3.592378	著	-1.639619
-4.11411	葛	-0.7907596
-4.574593	葡	-1.173605
-4.352666	董	-1.699978
-4.574593	葩	-0.2353614
-4.11411	葫	-1.007274
-4.11411	葬	-0.6278781
-4.574593	葭	-0.2353614
-4.11411	葱	-0.4433537
-4.574593	葳	-0.2353614
-4.574593	葵	-0.2764524
-4.574593	葺	-0.2353614
-3.452063	蒂	-0.5308786
-4.574593	蒋	-1.141673
-3.592378	蒙	-1.145434
-4.500966	蒜	-0.2764524
-4.352666	蒲	-0.5537348
-4.21721	蒸	-0.2953081
-4.574593	蒽	-0.2353614
-4.11411	蓄	-0.8556198
-3.900867	蓉	-1.101751
-4.500966	蓊	-0.2764523
-4.574593	蓓	-0.2764524
-3.848045	蓝	-0.7946756
-4.574593	蓟	-0.5301524
-4.574593	蓦	-0.2764524
-3.961013	蓬	-0.9342471
-4.574593	蓿	-0.2353614
-4.500966	蔑	-0.2353614
-4.352666	蔓	-0.8616964
-4.574593	蔗	-0.2764523
-4.352666	蔚	-0.4454977
-4.500966	蔡	-1.171128
-4.500966	蔫	-0.2985542
-4.500966	蔬	-1.794038
-4.574593	蔷	-0.2353614
-4.574593	蔺	-0.2353614
-4.574593	蔼	-0.3083037
-4.21721	蔽	-0.6226522
-4.500966	蕃	-0.2353614
-4.352666	蕉	-0.571333
-4.21721	蕊	-0.872575
-4.500966	蕙	-0.2776417
-4.03085	蕴	-0.6233026
-4.574593	蕻	-0.2353614
-3.961013	蕾	-1.142201
-3.684264	薄	-1.032558
-4.352666	薇	-0.4332424
-4.574593	薛	-1.029251
-3.900867	薪	-0.5058554
-4.21721	薯	-1.115995
-4.500966	薰	-0.2764523
-4.574593	薹	-0.2353614
-4.352666	藉	-0.6868278
-3.493991	藏	-1.262739
-4.574593	藐	-0.2353614
-4.574593	藓	-0.2353614
-4.574593	藜	-0.2985542
-3.719788	藤	-0.3226176
-4.500966	藩	-0.6093336
-4.352666	藻	-0.2920861
-4.352666	蘅	-0.3083037
-4.500966	蘑	-0.2764524
-4.574593	蘖	-0.2353614
-4.574593	蘸	-0.2353614
-3.224119	虎	-1.104452
-4.500966	虏	-0.2764524
-4.352666	虐	-0.2851586
-3.800957	虑	-1.803981
-4.574593	虔	-0.4649791
-3.684264	虚	-0.6067806
-4.352666	虞	-0.3857978
-3.6209	虫	-0.796773
-4.500966	虬	-0.2353614
-3.758479	虹	-0.8782228
-4.574593	虽	-1.801219
-4.500966	虾	-0.3857978
-3.961013	蚀	-0.8361541
-4.574593	蚂	-0.2353614
-4.574593	蚊	-0.2353614
-4.574593	蚌	-0.2985542
-4.500966	蚕	-0.2771953
-4.574593	蚨	-0.2985542
-4.574593	蛀	-0.3857978
-4.21721	蛇	-0.4423049
-3.651427	蛋	-1.129626
-4.500966	蛐	-0.2985542
-4.352666	蛙	-0.4332424
-4.574593	蛛	-0.2353614
-4.574593	蛟	-0.3083037
-4.574593	蛤	-0.2353614
-4.500966	蛮	-0.4062473
-4.574593	蛰	-0.2353614
-4.21721	蜀	-0.5339811
-4.500966	蜂	-0.3098927
-4.574593	蜒	-0.6093336
-4.574593	蜓	-0.2985542
-4.574593	蜕	-0.5319258
-4.574593	蜗	-0.2353614
-4.03085	蜜	-0.513341
-4.500966	蜡	-0.3231278
-4.574593	蜥	-0.2985542
-4.574593	蜷	-0.2353614
-4.574593	蜻	-0.2985542
-4.574593	蜿	-0.6093336
-4.352666	蝇	-0.6093336
-4.352666	蝉	-0.5488837
-4.574593	蝗	-0.2764523
-4.500966	蝴	-0.4332424
-4.352666	蝶	-0.4744896
-4.574593	螃	-0.2353614
-3.719788	融	-1.696723
-4.21721	螺	-0.3495976
-4.574593	蟀	-0.3083037
-4.574593	蟆	-0.2353614
-4.574593	蟋	-0.3083037
-4.574593	蟥	-0.2353614
-4.352666	蟹	-0.3083037
-4.574593	蟾	-0.2353614
-4.574593	蠡	-0.2353614
-4.352666	蠢	-0.2658094
-4.574593	蠹	-0.3083037
-3.261121	血	-0.8930391
-2.679478	行	-1.770249
-4.03085	衍	-0.5845446
-4.03085	衔	-0.8523717
-3.330797	街	-1.198294
-4.574593	衙	-0.2353614
-3.684264	衡	-1.2498
-4.574593	衢	-0.2353614
-3.236106	衣	-0.9880451
-3.493991	补	-0.9749415
-3.168694	表	-1.777166
-4.500966	衩	-0.2353614
-4.03085	衫	-0.754763
-4.21721	衬	-0.4762104
-4.574593	衮	-0.2353614
-4.11411	衰	-0.738431
-3.900867	衷	-1.162726
-4.500966	衽	-0.2353614
-4.574593	袁	-1.636218
-4.574593	袂	-0.7854249
-4.352666	袄	-0.6762804
-4.352666	袅	-0.4062473
-4.574593	袈	-0.2353614
-3.565614	袋	-0.9532675
-4.352666	袍	-0.3083037
-4.500966	袒	-0.2658094
-4.11411	袖	-0.5781021
-4.500966	袜	-0.2985542
-4.574593	袤	-0.6093336
-3.848045	被	-1.751578
-3.900867	袭	-1.205342
-4.574593	袱	-1.322544
-3.848045	裁	-1.074218
-3.565614	裂	-0.902221
-3.092528	装	-1.110995
-4.500966	裔	-1.153402
-3.900867	裕	-0.8771406
-4.500966	裘	-0.4332424
-4.03085	裙	-0.6200644
-4.574593	裟	-0.2353614
-3.961013	裤	-0.6060951
-4.574593	裨	-0.3083037
-4.574593	裳	-0.2353614
-4.574593	裴	-0.8311824
-4.352666	裸	-0.2703388
-4.352666	裹	-0.8137326
-4.352666	褂	-0.2851585
-4.574593	褐	-0.2353614
-4.500966	褒	-0.2776417
-4.574593	褚	-1.670031
-4.574593	褛	-0.2985542
-4.500966	褥	-0.6762804
-4.574593	褪	-0.2985542
-4.500966	褴	-0.2985542
-4.574593	褶	-0.2353614
-4.500966	襄	-0.8212634
-3.961013	襟	-0.6145079
-2.904187	西	-1.1465
-3.27419	要	-2.323626
-4.574593	覃	-0.2985542
-4.03085	覆	-0.9365193
-3.058931	见	-1.34716
-3.101349	观	-1.554333
-3.378689	规	-1.738061
-4.352666	觅	-0.6868278
-3.224119	视	-1.440881
-3.758479	览	-1.188493
-3.565614	觉	-1.366376
-4.574593	觐	-0.2985542
-4.500966	觑	-0.2985542
-3.179228	角	-1.079899
-4.574593	觞	-0.2353614
-3.168694	解	-1.634226
-4.574593	觥	-0.2353614
-4.03085	触	-0.9167343
-2.939548	言	-1.013455
-4.574593	詹	-0.531186
-3.684264	誉	-1.361355
-4.11411	誓	-0.5864909
-3.472521	警	-1.186002
-4.574593	譬	-0.7854249
-3.190023	计	-1.62138
-3.800957	订	-1.176183
-3.758479	认	-1.816406
-4.500966	讥	-0.2658094
-4.03085	讨	-1.448604
-3.592378	让	-1.626389
-4.574593	讪	-0.2353614
-4.574593	讫	-0.2353614
-3.565614	训	-1.565868
-3.413828	议	-1.764104
-3.684264	讯	-2.004369
-3.148364	记	-1.938278
-3.758479	讲	-1.412434
-4.21721	讳	-0.5981328
-4.574593	讴	-1.061631
-4.500966	讶	-0.4649791
-4.500966	讷	-0.2353614
-3.565614	许	-1.693204
-4.500966	讹	-0.2353614
-2.933451	论	-1.605669
-4.574593	讼	-1.217384
-4.21721	讽	-0.5715451
-3.413828	设	-1.999323
-3.362131	访	-1.707444
-4.500966	诀	-0.2776417
-3.020289	证	-1.563888
-4.500966	诃	-0.2764524
-3.540404	评	-1.251531
-3.493991	识	-1.652147
-4.11411	诈	-0.9960728
-3.592378	诉	-1.477969
-3.684264	诊	-0.9030467
-3.346182	词	-1.266414
-3.961013	译	-0.6951063
-3.540404	试	-1.143475
-3.516578	诗	-0.6976392
-4.574593	诘	-0.2353614
-4.574593	诙	-0.5301524
-3.330797	诚	-1.107657
-4.500966	诛	-0.2985542
-3.012957	话	-1.672823
-4.21721	诞	-1.06057
-4.574593	诠	-0.6762804
-4.574593	诡	-0.2353614
-4.03085	询	-1.241562
-4.500966	诣	-0.2985542
-4.574593	诤	-0.2353614
-4.352666	该	-1.251697
-4.11411	详	-0.9364812
-4.574593	诧	-0.3083037
-4.574593	诩	-0.2353614
-4.03085	诫	-0.9280924
-4.574593	诬	-0.2353614
-3.005746	语	-1.188729
-3.848045	误	-1.100041
-4.352666	诱	-0.7125127
-4.574593	诲	-0.4332424
-3.083882	说	-2.0453
-4.352666	诵	-0.3569982
-3.592378	请	-1.383811
-4.21721	诸	-0.8463449
-3.27419	诺	-0.8748997
-3.592378	读	-1.602686
-4.574593	诼	-0.2353614
-4.574593	诽	-0.2353614
-3.301572	课	-1.271389
-4.574593	谁	-1.574591
-3.168694	调	-1.489465
-4.352666	谅	-0.6762805
-4.500966	谆	-0.2658094
-3.248433	谈	-1.655151
-3.848045	谊	-1.336034
-3.432525	谋	-0.9426575
-4.574593	谌	-0.2353614
-4.574593	谍	-0.6093336
-4.500966	谎	-0.2658094
-4.500966	谏	-0.2353614
-4.352666	谐	-1.005297
-4.574593	谑	-0.2353614
-4.574593	谒	-0.2353614
-4.03085	谓	-1.921088
-4.574593	谕	-0.2353614
-4.500966	谙	-0.3083037
-4.500966	谚	-0.2353614
-4.500966	谛	-0.2888878
-4.500966	谜	-0.4614305
-4.500966	谟	-0.2985542
-3.565614	谢	-1.131842
-4.352666	谣	-0.5899178
-4.574593	谤	-0.2353614
-3.848045	谦	-0.7770165
-4.574593	谧	-0.3083037
-4.21721	谨	-0.8620781
-4.574593	谬	-0.3083037
-4.352666	谭	-1.286242
-3.758479	谱	-0.8348719
-4.574593	谲	-0.2353614
-4.574593	谴	-1.362661
-4.574593	谶	-0.2353614
-3.362131	谷	-0.81105
-4.574593	豁	-0.3540612
-3.684264	豆	-0.9210209
-4.574593	豌	-0.2985542
-3.378689	象	-1.610133
-3.684264	豪	-0.7430314
-3.900867	豫	-0.7912881
-3.900867	豹	-0.6200644
-4.574593	貂	-0.7342724
-3.565614	貌	-1.655609
-3.472521	贝	-0.893585
-3.900867	贞	-0.5553275
-3.452063	负	-1.518993
-4.352666	贡	-1.799548
-3.592378	财	-1.345972
-3.493991	责	-1.840255
-3.315939	贤	-0.8198688
-3.651427	败	-1.409032
-3.493991	账	-1.158911
-3.301572	货	-1.233192
-3.190023	质	-1.643301
-3.800957	贩	-0.8264866
-4.21721	贪	-0.7339837
-3.758479	贫	-1.540227
-4.500966	贬	-1.169736
-3.592378	购	-1.21814
-4.574593	贮	-0.3027057
-3.800957	贯	-1.513302
-4.21721	贱	-0.3372497
-4.574593	贲	-0.2985542
-3.900867	贴	-1.048538
-3.378689	贵	-1.051004
-3.719788	贷	-1.594133
-3.592378	贸	-1.566394
-2.777458	费	-1.557559
-3.800957	贺	-1.234156
-4.500966	贻	-0.248631
-4.21721	贼	-0.5301524
-4.21721	贾	-1.125923
-4.03085	贿	-1.02925
-4.574593	赁	-1.086455
-4.574593	赂	-0.8991628
-4.500966	赃	-0.6856051
-3.067089	资	-1.835291
-4.574593	赅	-0.2353614
-4.574593	赈	-0.7854249
-4.03085	赋	-0.8724296
-4.574593	赌	-0.4463942
-4.574593	赎	-0.2776417
-3.758479	赏	-1.113797
-4.352666	赐	-0.3970292
-4.574593	赓	-0.3083037
-4.11411	赔	-1.007609
-3.848045	赖	-1.270156
-4.574593	赘	-0.2353614
-4.500966	赚	-0.8779058
-3.043059	赛	-1.368293
-4.574593	赜	-0.2353614
-4.574593	赝	-1.007274
-3.758479	赞	-1.032415
-4.11411	赠	-1.185674
-4.574593	赡	-0.2353614
-4.500966	赢	-1.16119
-4.574593	赣	-0.3718834
-4.03085	赤	-0.6590415
-3.565614	赫	-0.696807
-4.574593	赭	-0.2353614
-3.413828	走	-1.356649
-4.352666	赳	-0.2658094
-3.848045	赴	-1.5041
-4.21721	赵	-1.656722
-4.21721	赶	-0.9368197
-2.998653	起	-1.595653
-4.574593	趁	-0.2854609
-3.540404	超	-1.001981
-3.651427	越	-1.359369
-4.21721	趋	-1.438493
-4.21721	趟	-1.286649
-3.651427	趣	-1.300194
-3.224119	足	-1.241944
-4.574593	趴	-0.4332424
-4.574593	趸	-0.2985542
-4.500966	趾	-0.2353614
-3.6209	跃	-1.016531
-4.574593	跆	-0.2985542
-4.352666	跋	-0.6600628
-3.961013	跌	-1.35269
-3.961013	跑	-1.002072
-4.500966	跚	-0.2353614
-3.848045	距	-1.755462
-4.352666	跟	-1.133413
-4.500966	跤	-0.766009
-4.11411	跨	-1.257655
-4.574593	跪	-0.5899178
-4.574593	跫	-0.2353614
-2.714596	路	-1.455453
-3.848045	跳	-0.8919601
-4.352666	践	-1.649151
-4.574593	跷	-0.2353614
-4.574593	跹	-0.2985542
-4.574593	跺	-0.464979
-4.574593	跻	-1.086455
-4.574593	踊	-1.229122
-4.574593	踌	-0.2353614
-4.03085	踏	-0.964564
-4.21721	踞	-1.67628
-4.500966	踢	-0.9103636
-4.500966	踩	-0.754763
-3.961013	踪	-1.083216
-4.574593	踱	-0.2353614
-4.574593	踵	-0.5319259
-4.574593	踹	-0.2985542
-4.574593	蹂	-0.2353614
-4.21721	蹄	-0.3752505
-4.03085	蹈	-0.8878263
-4.574593	蹊	-0.2353614
-4.574593	蹋	-0.2353614
-4.500966	蹒	-0.2353614
-4.574593	蹙	-0.2353614
-4.21721	蹦	-0.2813839
-4.500966	蹬	-0.2764524
-4.574593	蹭	-0.2353614
-4.574593	蹲	-0.9280925
-4.574593	蹴	-0.5301524
-4.574593	蹶	-0.2353614
-4.574593	蹿	-0.2985542
-4.11411	躁	-0.7282205
-4.574593	躇	-0.2353614
-4.574593	躏	-0.2353614
-2.971387	身	-1.242453
-4.500966	躬	-0.4681773
-4.352666	躯	-0.4990004
-4.574593	躲	-0.5086608
-4.500966	躺	-1.061631
-2.752807	车	-1.312474
-4.11411	轧	-0.5537348
-3.758479	轨	-1.430767
-4.03085	轩	-0.7282205
-3.287666	转	-1.091206
-3.493991	轮	-1.111956
-3.961013	软	-0.9037015
-4.500966	轰	-0.7475677
-4.574593	轱	-0.2353614
-4.574593	轲	-0.2985542
-4.03085	轴	-0.3283479
-4.574593	轶	-0.2764524
-3.684264	轻	-0.9721627
-3.432525	载	-0.9167634
-4.500966	轿	-1.310077
-4.352666	较	-2.061032
-4.500966	辄	-0.6468002
-4.03085	辅	-0.7722226
-4.21721	辆	-1.466785
-4.574593	辇	-0.2353614
-3.651427	辈	-1.175065
-3.168694	辉	-1.23913
-4.574593	辊	-0.2353614
-4.500966	辍	-0.5301524
-4.500966	辐	-1.349696
-4.11411	辑	-1.094864
-3.961013	输	-1.108595
-4.03085	辖	-1.308304
-4.574593	辗	-0.5301524
-4.574593	辘	-0.2353614
-4.500966	辙	-0.6093336
-3.6209	辛	-0.8105955
-4.500966	辜	-0.8311825
-3.395903	辞	-1.087639
-4.21721	辟	-1.616247
-3.961013	辣	-0.5450982
-4.03085	辨	-0.6122006
-3.961013	辩	-0.8216573
-4.352666	辫	-0.2764523
-3.684264	辰	-0.9678378
-3.848045	辱	-0.7720454
-3.092528	边	-1.285634
-4.21721	辽	-1.054731
-2.846006	达	-1.507979
-3.684264	迁	-0.9132353
-4.574593	迂	-0.2353614
-4.574593	迄	-1.218307
-4.352666	迅	-1.52326
-3.15841	过	-1.663679
-3.848045	迈	-0.9754589
-3.848045	迎	-1.422625
-3.035336	运	-1.373204
-3.330797	近	-1.637317
-3.800957	返	-0.9180907
-3.758479	还	-2.071873
-4.500966	这	-2.331102
-3.058931	进	-1.903055
-3.058931	远	-1.055919
-4.11411	违	-1.332901
-3.346182	连	-1.066499
-4.11411	迟	-1.127462
-4.21721	迢	-0.4271905
-4.574593	迤	-0.2353614
-4.574593	迥	-0.2985541
-4.574593	迩	-0.6093336
-3.236106	迪	-0.7584618
-3.900867	迫	-0.9897866
-4.11411	迭	-0.6654018
-3.493991	述	-1.426368
-3.651427	迷	-0.7559605
-4.574593	迸	-0.2353614
-3.378689	迹	-1.712076
-4.11411	追	-0.8718328
-3.565614	退	-1.011468
-3.378689	送	-1.425604
-3.961013	适	-1.291504
-3.900867	逃	-0.6349047
-4.574593	逄	-0.2353614
-4.03085	逆	-0.5304921
-3.236106	选	-1.379653
-3.800957	逊	-0.7530348
-3.719788	透	-0.9765358
-3.800957	逐	-1.22541
-3.961013	递	-0.9850985
-3.565614	途	-1.231833
-4.500966	逗	-0.3283479
-3.043059	通	-1.397698
-4.352666	逛	-0.9655814
-3.758479	逝	-1.030856
-4.574593	逞	-0.2985542
-3.432525	速	-1.636244
-3.346182	造	-1.453321
-3.758479	逢	-0.9323999
-4.574593	逮	-1.464651
-4.500966	逵	-0.3083037
-4.574593	逶	-0.2353614
-3.900867	逸	-0.6091232
-4.500966	逻	-0.724975
-4.21721	逼	-0.6540022
-4.352666	逾	-0.8961575
-4.21721	遂	-0.5335444
-3.684264	遇	-1.452965
-3.961013	遍	-1.38972
-4.574593	遏	-1.228657
-4.352666	遐	-0.3972818
-4.574593	遑	-0.2353614
-4.500966	遒	-0.356823
-2.703759	道	-1.53674
-4.11411	遗	-0.7176681
-4.574593	遛	-0.2353614
-4.21721	遣	-0.7394518
-4.500966	遥	-0.6536075
-4.574593	遨	-0.4332424
-4.21721	遭	-1.262739
-4.500966	遮	-0.3740304
-4.574593	遴	-0.3083037
-4.574593	遵	-0.983144
-3.719788	避	-1.062759
-4.352666	邀	-1.520541
-4.500966	邃	-0.5899178
-4.500966	邈	-0.2658094
-4.11411	邑	-0.4463942
-4.574593	邓	-2.053252
-4.574593	邕	-0.2985542
-4.574593	邛	-0.2353614
-4.574593	邝	-0.2353614
-4.574593	邢	-0.8499448
-3.565614	那	-1.471483
-3.493991	邦	-1.040917
-4.11411	邪	-0.4568249
-4.574593	邬	-0.2353614
-4.11411	邮	-0.9938062
-4.574593	邯	-0.7530348
-4.500966	邱	-1.278341
-4.574593	邳	-0.2985542
-4.574593	邵	-1.048666
-4.574593	邸	-0.3083037
-4.574593	邹	-1.309337
-3.961013	邻	-0.6712316
-3.800957	郁	-0.9516748
-4.574593	郄	-0.2353614
-3.900867	郊	-1.07878
-3.493991	郎	-1.030618
-4.352666	郑	-1.564459
-4.574593	郗	-0.2353614
-4.574593	郝	-1.132212
-4.352666	郡	-0.3857978
-2.640771	部	-2.304466
-4.352666	郭	-1.675582
-4.574593	郴	-0.3083037
-4.574593	郸	-0.4990004
-3.287666	都	-2.145545
-4.500966	鄂	-0.3655533
-4.574593	鄄	-0.2353614
-4.574593	鄢	-0.6068757
-4.574593	鄱	-0.3083037
-4.500966	酋	-0.5084975
-4.500966	酌	-0.2764524
-3.540404	配	-1.236212
-3.362131	酒	-0.8209214
-4.574593	酗	-0.3083037
-4.574593	酝	-0.7854249
-4.352666	酣	-0.4332424
-4.574593	酥	-0.2353614
-4.500966	酪	-0.2985542
-3.900867	酬	-0.7952218
-4.352666	酮	-0.4332424
-4.500966	酯	-0.3083037
-4.500966	酱	-0.2764524
-4.574593	酵	-0.2764523
-4.21721	酶	-0.5319258
-4.21721	酷	-0.508604
-3.719788	酸	-0.4911597
-4.574593	酹	-0.2353614
-4.500966	酿	-0.5981328
-4.21721	醇	-0.2684999
-3.900867	醉	-0.6477406
-4.574593	醋	-0.2353614
-3.719788	醒	-1.226703
-4.574593	醚	-0.2353614
-4.574593	醛	-0.6093336
-4.574593	醴	-0.2353614
-4.574593	醺	-0.2353614
-3.592378	采	-1.333194
-4.352666	釉	-0.3857978
-3.758479	释	-0.9722468
-2.676117	里	-1.450056
-2.939548	重	-1.592264
-3.413828	野	-0.9735123
-2.785997	量	-1.980727
-2.76087	金	-1.266792
-4.574593	釜	-0.2353614
-4.03085	鉴	-1.27273
-4.574593	鎏	-0.2353614
-4.574593	鏊	-0.2353614
-4.574593	鏖	-0.2985542
-4.11411	鑫	-0.5319258
-3.565614	针	-1.431338
-4.352666	钉	-0.5001892
-4.11411	钊	-0.5659481
-4.500966	钎	-0.3083037
-4.574593	钏	-0.2353614
-4.352666	钓	-0.7057773
-4.574593	钙	-0.2353614
-4.574593	钜	-0.2353614
-4.500966	钝	-0.4332424
-3.900867	钞	-0.6162468
-3.493991	钟	-1.141259
-4.574593	钠	-0.2353614
-3.395903	钢	-1.000668
-4.574593	钥	-1.173605
-3.900867	钦	-1.061225
-3.800957	钧	-0.6045542
-4.574593	钨	-0.2353614
-4.352666	钩	-1.149226
-4.500966	钮	-0.8311824
-4.21721	钰	-0.4817617
-3.287666	钱	-1.733144
-4.352666	钳	-0.2658094
-4.574593	钴	-0.2985542
-4.574593	钵	-0.2985542
-4.574593	钺	-0.2353614
-4.21721	钻	-0.8879963
-4.574593	钼	-0.2353614
-4.500966	钾	-0.2851585
-4.500966	铀	-0.7606013
-3.493991	铁	-0.8818136
-4.11411	铃	-0.4183209
-4.574593	铄	-0.2985542
-4.574593	铅	-0.4423049
-4.574593	铆	-0.2353614
-4.574593	铉	-0.2985542
-4.03085	铎	-0.9103636
-4.574593	铚	-0.2353614
-4.574593	铛	-0.2985542
-4.11411	铜	-0.6438251
-4.574593	铝	-0.4011015
-4.574593	铠	-0.2353614
-4.574593	铡	-0.2353614
-4.500966	铢	-1.385798
-4.574593	铣	-0.2353614
-4.574593	铤	-0.6093337
-4.03085	铨	-0.5715451
-4.574593	铬	-0.2764523
-3.6209	铭	-0.8143053
-3.961013	铮	-0.6410703
-4.574593	铱	-0.2985542
-4.500966	铲	-0.4571258
-4.574593	铳	-0.2353614
-4.574593	铵	-0.2353614
-3.493991	银	-1.363767
-4.574593	铷	-0.2353614
-4.500966	铸	-0.7461875
-3.719788	铺	-0.7203555
-3.848045	链	-0.8918802
-4.574593	铿	-0.3043776
-3.138545	销	-1.341353
-3.758479	锁	-1.08732
-4.574593	锂	-0.2353614
-4.574593	锃	-0.3083037
-4.574593	锄	-0.3400403
-3.900867	锅	-0.843175
-4.574593	锆	-0.2353614
-4.500966	锈	-0.293694
-3.651427	锋	-1.16622
-4.500966	锌	-0.2985542
-4.574593	锏	-0.2353614
-3.848045	锐	-0.7944275
-4.574593	锑	-0.2764524
-4.574593	锒	-0.2985542
-3.758479	错	-1.014401
-4.03085	锚	-0.6130232
-4.11411	锡	-0.6028374
-4.574593	锢	-0.2353614
-4.352666	锣	-0.6393696
-4.21721	锤	-0.3970292
-4.574593	锥	-0.2353614
-3.719788	锦	-0.8091673
-4.500966	锨	-0.2985542
-4.03085	锭	-1.474635
-4.21721	键	-1.654936
-4.500966	锯	-0.2776417
-4.574593	锰	-0.2764524
-4.574593	锲	-0.464979
-4.574593	锴	-0.2353614
-4.21721	锵	-0.5301524
-4.500966	锹	-0.4332424
-4.574593	锻	-1.277892
-4.352666	镀	-0.4047473
-4.574593	镂	-0.2353614
-2.803594	镇	-1.475651
-4.574593	镉	-0.2985542
-4.574593	镌	-0.4332424
-4.574593	镍	-0.2595466
-4.500966	镐	-0.5301524
-4.352666	镑	-1.387485
-4.574593	镕	-1.538753
-4.574593	镗	-0.2353614
-4.352666	镛	-0.3083037
-3.540404	镜	-0.9574505
-4.574593	镝	-0.2353614
-4.574593	镠	-0.2353614
-4.574593	镭	-0.2353614
-4.500966	镰	-0.5301524
-4.500966	镶	-0.6093336
-2.714596	长	-1.506646
-2.803594	门	-1.471722
-4.03085	闪	-0.7719015
-4.500966	闫	-0.4332424
-3.848045	闭	-1.054915
-3.301572	问	-1.874404
-4.500966	闯	-0.8544064
-4.574593	闰	-0.2353614
-3.651427	闲	-0.6780729
-3.101349	间	-1.830218
-4.574593	闵	-0.6868278
-4.11411	闷	-0.3824433
-4.03085	闸	-0.7307584
-4.03085	闹	-0.9609856
-4.574593	闺	-0.4649791
-3.472521	闻	-1.302838
-4.500966	闽	-0.4201594
-4.500966	闾	-0.2353614
-4.500966	阀	-0.5301524
-3.848045	阁	-1.118565
-4.500966	阂	-0.5301524
-3.758479	阅	-1.013092
-4.574593	阉	-0.2353614
-4.574593	阎	-1.399384
-4.574593	阐	-0.964092
-4.500966	阑	-0.2353614
-3.6209	阔	-0.9936345
-4.574593	阕	-0.2353614
-4.500966	阖	-0.5301524
-4.500966	阙	-0.2764523
-4.574593	阜	-0.3231278
-2.591244	队	-2.175352
-4.574593	阪	-0.2353614
-4.574593	阮	-0.5319259
-3.395903	防	-1.133921
-2.971387	阳	-1.23998
-3.800957	阴	-0.6324756
-3.540404	阵	-1.029479
-3.719788	阶	-1.653721
-3.684264	阻	-0.8332226
-3.6209	阿	-0.9325492
-4.11411	陀	-0.5981328
-4.21721	附	-1.386948
-3.516578	际	-2.006713
-3.800957	陆	-1.182367
-4.500966	陇	-0.2851586
-3.961013	陈	-1.547548
-4.574593	陉	-0.2353614
-4.21721	陋	-0.6278781
-4.574593	陌	-1.035302
-3.719788	降	-1.383984
-3.684264	限	-1.469195
-4.574593	陕	-0.9937501
-4.574593	陛	-0.2353614
-4.574593	陟	-0.2353614
-4.574593	陡	-0.3283478
-2.984806	院	-1.94871
-3.395903	除	-1.380919
-4.574593	陨	-0.2985542
-3.346182	险	-1.222155
-4.500966	陪	-1.121937
-4.574593	陲	-0.7854249
-3.540404	陵	-0.7206328
-3.848045	陶	-0.8635714
-3.848045	陷	-1.130227
-4.574593	隅	-0.6093336
-3.516578	隆	-0.8695712
-4.574593	隋	-0.2920861
-3.719788	随	-1.170713
-3.900867	隐	-0.618355
-3.961013	隔	-0.8613584
-4.500966	隘	-0.5301524
-4.11411	隙	-0.8909478
-3.961013	障	-1.466058
-4.352666	隧	-0.8149648
-4.500966	隶	-0.5521292
-4.574593	隽	-0.2353614
-3.067089	难	-1.355839
-3.800957	雀	-0.5820879
-3.900867	雁	-0.7833484
-3.315939	雄	-0.853668
-3.452063	雅	-0.6728551
-3.110354	集	-1.615405
-4.500966	雇	-0.4464956
-4.500966	雌	-0.2595466
-4.352666	雍	-0.2658094
-4.500966	雏	-0.5553275
-3.719788	雕	-0.8858935
-3.128943	雨	-0.9210947
-3.190023	雪	-0.9841893
-4.574593	雯	-0.9103636
-4.574593	雳	-0.2985542
-3.800957	零	-0.7352117
-3.261121	雷	-0.8286864
-4.574593	雹	-0.2985542
-3.900867	雾	-1.001663
-3.719788	需	-2.031684
-4.500966	霁	-0.2985542
-4.352666	霄	-0.6200644
-4.352666	霆	-0.4332424
-3.684264	震	-1.245112
-4.500966	霈	-0.2985542
-4.21721	霉	-0.3415066
-4.03085	霍	-0.6401546
-4.574593	霎	-0.4332424
-4.500966	霏	-0.4332424
-4.500966	霓	-0.766009
-3.848045	霖	-1.109936
-3.848045	霜	-0.7006332
-3.432525	霞	-0.9422395
-4.21721	霭	-0.2595466
-3.413828	露	-1.159917
-3.848045	霸	-0.5398287
-4.574593	霹	-0.2985542
-4.574593	霾	-0.3083037
-3.190023	青	-1.118377
-4.574593	靓	-0.2353614
-4.11411	靖	-0.3476812
-3.432525	静	-0.8741604
-4.574593	靛	-0.2353614
-3.224119	非	-1.210895
-3.900867	靠	-1.476252
-4.03085	靡	-0.7342724
-2.707342	面	-1.738061
-3.493991	革	-2.22733
-4.574593	靳	-0.6093336
-4.574593	靴	-0.2985542
-3.900867	鞋	-0.5976322
-4.500966	鞍	-0.6145079
-4.574593	鞠	-0.4332424
-4.500966	鞭	-0.7123158
-3.900867	韦	-1.010635
-4.500966	韧	-0.4027557
-4.352666	韩	-1.502992
-4.500966	韫	-0.2764524
-4.11411	韬	-0.4463942
-3.027747	音	-1.267213
-3.719788	韵	-0.8471064
-4.500966	韶	-0.2658094
-3.900867	页	-1.191455
-3.516578	顶	-0.8882075
-4.352666	顷	-0.9280924
-3.395903	项	-2.193122
-3.27419	顺	-1.008208
-3.719788	须	-1.866167
-4.574593	顽	-0.8032889
-3.565614	顾	-1.218954
-3.516578	顿	-1.699571
-4.574593	颁	-1.178731
-4.03085	颂	-0.7712188
-3.961013	预	-1.078098
-3.452063	领	-1.773954
-4.21721	颇	-1.175065
-4.03085	颈	-0.4865502
-4.574593	颏	-0.2353614
-4.352666	颐	-0.292086
